516 32
114 -0.1672909 -0.45117858 0.43466732 0.09322012 -0.33382553 -0.06448347 0.6115841 -0.2912337 -0.40776688 0.7587057 0.5048495 0.34712967 0.18627895 -0.041105215 -0.016275184 0.39954108 0.14218609 -0.09658808 0.7901727 -0.06283253 0.35742602 0.6050669 -0.29598957 -0.2694488 0.056196973 0.057082105 -0.63435507 0.6219606 -0.55173564 -0.40057376 0.7744533 0.15633844
55 0.5323456 -1.173004 -0.3173503 0.9407434 -0.32691428 0.23595311 -0.3781677 -1.1806562 -0.6508945 -0.4569304 0.4629532 0.59235376 -0.5575837 0.5552482 -0.27097252 0.48979938 -0.10099725 0.78393203 0.006710298 0.53765625 0.18559764 -0.75529104 0.6159309 -0.091140985 -0.110116646 -0.9595733 -0.9125194 -0.0071815723 -0.707696 0.06816146 0.056019995 0.39033392
87 0.35132238 -0.2664672 -0.103843324 -0.030189505 -0.7463021 0.10938733 0.19453852 0.37167618 -0.21744779 0.45412496 0.36216575 -0.14553525 -0.34178284 -0.51747644 -0.12917529 -0.004512999 0.03718843 0.82879066 0.16233447 -0.393501 0.22977844 0.13465334 -0.111114934 -0.26459947 0.40219003 -0.41406262 -0.9460366 0.06820569 0.40012485 -0.4540946 0.5649814 0.9504025
137 -0.21140851 -0.77132905 -0.032255456 0.13572305 -0.1651723 -0.15376084 0.553121 0.054589454 -0.19273582 0.9932741 0.56037414 0.5378263 0.57318723 0.20953879 0.09786476 0.41426775 0.1471552 0.40443674 0.5648566 0.19936095 -0.1258901 0.15566547 -0.022156568 -0.4813692 0.41981277 0.3862713 -0.85931623 0.57724804 -0.13516396 -0.21653134 0.3633417 -0.0066939094
47 -0.27200937 -0.44671124 0.38994074 0.36631677 -0.26143423 -0.11239095 0.30004832 -0.015066536 -0.0878864 1.027615 0.57858706 0.8869226 -0.184317 -0.10800264 -0.057927348 0.49415663 -0.24845643 0.28874326 0.090206094 0.15445472 0.22142215 0.7848238 -0.48980325 -0.19725181 -0.285753 0.5652778 -0.56044286 0.11119259 0.2938279 0.11809836 0.9184974 0.4849482
117 -0.63861036 -0.46297637 0.2903475 -0.020411545 -0.016917473 -0.37106317 0.38526237 -0.32394537 -0.15132414 0.37809017 0.8128855 -0.1016589 -0.028318262 0.2451626 -0.43603814 0.31703317 0.46246564 0.2960449 0.75670165 -0.70705146 -0.17041798 0.5278468 0.0059316764 -0.7465037 -0.018082438 -0.072341725 -0.969841 0.5214935 -0.39045545 -0.33699492 0.65250355 0.14021027
634 0.102486 -1.1938578 0.33196366 0.027876442 -0.3223443 0.1396877 0.43062747 0.06669153 0.058667444 0.7585843 0.49971986 0.45866647 0.41275796 0.07572573 -0.1249738 0.64735824 -0.19548012 0.092900224 0.32276872 -0.57328624 -0.05417834 0.8184473 0.17408502 -0.12170938 0.39875382 0.16891973 -0.8321055 0.09568076 -0.44055396 -0.7907393 0.65541965 -0.33847907
45 -0.13230212 -0.21824774 -0.3620996 0.59344035 -0.42912883 1.228531 0.044870052 -0.47769055 -0.9240473 -0.4023297 0.9802962 1.0372828 -0.8901341 0.3529211 -0.6128465 -0.33920187 -0.5536612 0.94354075 -0.13024884 -0.19865018 0.32735753 0.36512303 0.8205745 -0.2944378 -0.5201887 -1.2728606 -0.5572734 -0.21287777 -0.47579303 -0.4894717 -0.16911553 0.21184865
59 -0.25945204 -0.86864424 0.17630635 -0.13542888 0.03839249 -0.10394559 0.71045554 0.18175378 0.0080695385 0.8355524 0.45817772 0.60605395 0.14421028 0.07050526 0.2945101 0.64625084 0.068753 0.38472006 0.34555748 0.35565794 0.37365517 0.6338704 0.06546162 -0.62856215 0.23597807 0.1943093 -1.0713775 0.17663991 -0.074437805 -0.3794226 0.53552216 -0.24959081
54 0.69186383 -0.5422689 -0.23587438 0.34642 -0.4938012 -0.11266958 -0.392722 -0.12584943 0.24213924 0.24930528 0.57980657 0.18578425 -0.49432084 0.54315865 -0.3913152 0.46192437 -0.11224046 0.29302272 0.42744702 0.36763692 0.10917735 -1.150022 0.13849474 -0.3135886 0.3023728 -0.2905835 -0.63199896 -0.04039088 -0.9985791 -0.26655805 -0.015349435 1.1019294
30 0.42143726 0.31340137 -0.3624573 -0.22052875 -0.9621288 0.5269866 -0.10215814 0.33427072 -0.23968354 0.60680217 0.12406512 0.7306431 -0.5436041 -0.74362296 -0.15346606 -0.28965226 0.15814836 0.43673503 0.08100313 -0.08955162 0.22146386 0.05184023 0.7695225 -0.47657982 0.3547808 -0.56249034 -0.79735494 0.40883517 0.36683628 -0.62738 0.67351073 0.59124976
139 -0.2121395 -1.027491 0.19370006 0.13318926 0.14450629 0.08132428 0.13793874 0.052209135 0.31992766 1.0286337 0.8175352 0.6270349 0.36346447 -0.15813637 -0.004243672 0.7193747 -0.098561786 0.33970085 0.6163331 -0.5523112 -0.048309322 0.1785474 0.04638095 -0.68627745 0.4450096 0.28996694 -0.7101655 0.52302146 -0.2341199 -0.38366613 -0.021329377 -0.001518467
81 0.8357089 -0.017930038 0.10881458 0.16246352 0.4258569 -0.8396287 -1.0221839 -0.45667672 -1.4434643 -0.12673698 1.5273511 0.84668744 0.6537706 -0.0045060804 -0.090189055 -0.0583455 -0.41257003 0.53162295 -0.96807414 -1.0040903 0.05535177 0.6510874 0.1284986 -1.2688282 0.15858063 -0.55290544 -1.2007008 0.2993928 -1.0147963 0.101434864 0.47612152 0.60180795
224 -0.18520314 -0.5683806 0.25089666 0.10846241 -0.30482468 0.13455325 0.5545315 0.1826302 -0.4692635 0.74173903 -0.045768097 0.22729525 0.15632936 -0.5196107 0.18243118 0.2618851 -0.1284502 0.45263344 0.61555046 -0.64129615 0.38586864 0.35519862 -0.24648029 -0.3868537 0.28553927 0.16409552 -1.4036665 0.12430098 -0.051772244 -0.51386005 0.37136856 0.1452074
197 -0.07939651 -0.3323324 -0.13548468 -0.13780336 -0.6451948 -0.10882999 0.23657858 -0.36560076 -0.32752004 0.37076235 0.624101 0.31104276 0.35071513 -0.06430155 0.08519001 0.47781262 0.11065628 0.5782998 1.0086555 -0.4561084 0.24991465 0.3468812 0.007654135 -0.37622032 0.07066465 0.54706967 -0.72501844 0.7014305 -0.29751357 -0.15164451 0.79984 0.11500445
474 -0.47988895 -0.9461104 0.09938466 0.3504717 -0.18495882 -0.45784456 0.28896895 0.08729785 -0.22371762 0.72688866 0.7118704 0.55779606 0.05633663 0.015608024 0.44167256 0.50588655 -0.30036274 -0.060178574 0.36235002 0.14053214 -0.37458965 1.0362175 -0.14338867 0.10462072 0.0774907 0.012478078 -0.84100294 0.47232354 -0.3067701 -0.40712634 0.6451915 0.09419308
120 0.14398502 -0.06651123 -0.49537745 0.105440475 -0.707243 0.9697565 -0.14663368 -0.019621948 -0.5773058 -0.34441173 0.6174935 1.4293422 -0.90017545 -0.83941025 -0.6081374 -0.9678936 -0.061554253 0.32940146 0.12993152 -0.72724634 -0.41855574 0.17368607 0.79118437 -0.3329385 0.29787958 -0.5346369 -0.75102764 -0.14923464 0.08020698 -0.6432786 0.6201386 0.32589963
384 0.16171642 -0.08484596 -0.22367735 -0.26286718 -0.24712725 -0.50006074 -0.087195486 -0.20575795 -0.1916694 0.3743907 0.6932078 0.018119968 0.111526355 -0.3026224 -0.13341783 0.2832957 0.06002376 0.4896377 0.5862937 -0.46343336 0.5124934 0.20680492 -0.50098634 -0.32460794 0.057138417 0.04935163 -0.7081262 0.48151955 -0.19230488 -0.38864517 0.44463602 0.8702039
476 -1.0811417 -0.39110696 -0.015870549 0.41069263 -0.06806639 -0.59847426 0.1886456 -0.4178936 -0.4303455 0.7068639 0.7773773 0.26453894 -0.14016584 0.16491964 -0.017916119 0.20917039 -0.20592818 0.033452645 0.86394954 -0.03558388 -0.53943247 0.98388296 0.17074145 -0.16289526 -0.18076025 0.10379762 -1.0782399 0.5062598 -0.5881281 -0.6383363 0.26453885 0.2680608
454 0.9484635 -0.03197054 0.69705886 0.48683053 0.2953466 0.33920604 -0.3331737 0.7249547 -0.9161003 -0.080235325 0.5682591 0.8496633 -0.22107294 1.2182447 -0.13418739 0.479266 0.51649123 0.615678 -0.0822383 0.035752375 -1.1226883 0.04159324 0.9274879 -0.13354374 0.12245246 -0.12508366 -0.4197178 -0.7538469 -1.1386021 -0.43556094 0.7175806 1.262378
155 -0.28854978 -0.5526231 -0.06805278 -0.2377314 -0.1745341 0.1303505 0.08097462 -0.20509326 -0.44576117 0.6282659 0.63457674 0.38259086 0.52926195 0.25840583 -0.1831407 0.3217409 0.102464154 0.24397124 0.54990214 -0.27282792 0.59274745 0.46851146 -0.34619558 -0.35074252 0.4239234 0.5372698 -0.31158715 0.5853645 -0.35587782 -0.20737645 0.9079061 0.7719278
99 0.079641946 -0.08580823 -0.18634246 -0.122107185 -0.7523997 0.37374413 0.14287728 0.20679358 -0.18983059 0.38789397 0.31206408 0.49977794 -0.50957805 -0.7000506 -0.27669027 -0.8522051 0.5036535 1.2063884 -0.12755609 0.011223185 0.5079885 0.31536213 0.40174603 -0.480607 0.33650157 -0.65068185 -0.93662626 0.101798065 0.12660114 -0.6059425 0.28779083 0.5556076
248 -0.19210468 -0.74695975 0.22390477 -0.17008369 -0.27325383 -0.10757136 0.55776185 -0.008207588 0.09584282 0.52164716 0.56113 0.72173065 0.28558043 -0.02871613 -0.22568755 0.5012728 -0.040855594 0.601998 0.7631649 -0.87933207 -0.13604717 0.59974724 0.17359343 -0.443034 0.19766575 0.5906347 -0.539526 0.43831173 -0.6612968 -0.2745962 0.2798463 -0.02554164
68 0.7522103 -0.03687534 -0.36840948 -0.0402836 -0.2358176 0.13385943 0.34889945 -0.27937123 0.68325055 0.25335267 0.37097293 0.80328417 -0.5126365 -0.4482643 -0.33825472 0.4519418 0.31022248 0.28199792 -0.23792563 0.4451613 -0.2865579 0.45671642 -0.16737457 -0.4050049 -0.0878535 -0.17922044 -0.93237466 0.87223345 0.30202073 -0.08238739 1.0093851 1.4345967
795 0.3592145 -0.7631164 0.3150938 -0.03921149 -0.07307823 -0.42239165 0.09728385 -0.36038873 0.01763402 0.5538113 1.0324636 0.29995513 0.22725335 -0.36307925 -0.2524731 0.13752821 0.08417853 0.52091616 0.47328195 -0.25908297 0.48001552 0.5981127 -0.28053984 -0.19129941 -0.022357423 0.8489555 -0.43734205 0.4147872 -0.05325346 -0.30885383 0.7307831 0.47602084
222 0.52407384 -0.6444787 0.5534563 0.1682324 1.1558678 0.71204543 0.31768674 0.19742554 -0.7996851 0.09171909 0.75955296 0.9285058 0.011148094 0.44683546 -0.3637638 0.12358226 0.81653017 0.13637277 -0.4145288 0.026212784 -0.90118074 0.7353306 1.4920827 -1.1140863 0.18476397 -0.3832358 -0.39293995 -1.0585641 -1.0605999 0.33500552 0.64350283 1.1012108
751 0.5118988 0.39339027 -0.7032732 -0.2513151 0.1062109 0.4083267 0.09239741 -0.0066691604 0.12927899 0.2247556 -0.07583202 0.9025118 -0.6341601 -0.8572512 -0.2467931 0.33506972 0.39098635 0.47054437 0.037695147 -0.1313256 0.06289094 0.37698188 0.28679982 -0.64340174 -0.54587764 -0.40368548 -0.91000205 0.5885753 0.36817375 -0.5554747 1.2294474 0.92834246
772 0.15554382 -0.72298694 0.5269704 0.38803935 -0.24399853 -0.2740126 -0.28264478 0.31893635 -1.0567203 0.60705155 0.8330288 2.0087247 -0.61857224 -0.25705737 0.46712 -0.19879921 0.26675123 -0.13818365 -0.0040943585 -0.26457328 0.49561298 0.19504054 0.9198985 0.16209891 -0.36027935 0.19564697 -0.44397095 -0.17626625 0.95281214 0.06597138 0.78642213 0.64355063
65 0.32035157 -0.26680678 0.29740688 -0.40030283 -0.77173525 0.127705 -0.20066299 0.81708187 -0.48165542 0.22607474 0.3188688 0.7967261 -0.8196674 -0.60066503 -0.14112543 -0.29769453 0.34716266 0.27758723 0.23858461 -0.06462597 0.6033848 0.12189235 0.4837381 -0.74703544 0.36548358 -0.40401882 -0.8691036 0.40624097 0.75970405 -0.37997723 0.15204355 0.9666735
292 0.37910268 -1.4020699 0.10890463 0.9105845 -0.49634796 0.32459304 -1.3809229 -1.3287741 -0.855647 -0.39316985 0.05549911 0.69431615 -0.50296366 -0.123559706 -0.12521723 0.55968845 -0.29041433 0.5960527 0.106648736 0.917877 0.18168344 -0.13231048 0.9992413 -0.4840178 -0.12556519 -0.22567753 -0.76372206 -0.18470387 -0.97055894 -0.08196501 0.26402175 0.29253945
86 1.1649597 0.15998217 0.7745942 1.1257358 0.08848843 0.049489014 -0.21166492 0.101835236 0.8027226 -0.11171641 0.20696501 1.7080331 -0.5125806 -0.8292488 -0.43851838 0.17089096 -0.2757889 0.26202685 -0.498523 0.54026943 -0.32975978 0.9297754 0.35977715 -0.9970613 -0.6371426 -0.89093 -1.2503769 0.31716073 -0.9043608 0.009274239 1.3327615 0.45780873
790 0.08142527 -1.0620388 0.52748835 -0.13338968 -0.30508137 0.34034356 0.21316011 0.07043938 0.38681045 0.49028817 0.9044654 0.58652645 0.31063047 -0.088202305 -0.25384486 0.7179152 -0.13892199 0.38526353 0.19088647 -0.48817062 0.18968524 0.79218334 0.28900555 -0.473702 0.08179521 0.95567834 -0.39848372 0.7053298 -0.65655214 -0.5139789 0.14174035 0.10192864
302 0.325264 -0.2983855 0.96636724 0.58978134 -0.23154755 0.34847695 -0.6930196 -0.545941 -0.27761444 0.95065314 0.3080864 1.2913677 -0.13678429 0.1888916 -0.19785978 -0.34335864 0.118941195 0.6752015 0.28024328 -0.2761589 -0.6751296 -1.641145 -0.20368071 -0.82989335 -0.52050483 -0.35660553 -0.9106499 -0.13143325 -1.3490838 -0.24539039 -0.13155468 1.1374315
53 0.711725 -0.4489034 0.13236368 0.5875544 -0.35647783 0.009929552 -0.37718093 0.15537623 -0.38946357 0.20810202 0.65683407 0.36130053 -0.45776477 0.72105885 -0.11324349 0.34471112 0.23881358 0.1991232 0.22248486 0.48927733 -0.35418546 -1.1585599 -0.0666745 -0.43065083 -0.10428928 -0.41708475 -0.26449203 0.0071221567 -1.1285273 -0.6519677 -0.0007671729 1.3609881
325 0.9203315 -0.4691617 0.4295028 0.32088074 0.3117171 0.059579052 -0.65326303 0.86761975 -0.7365324 -0.00410046 0.5488297 0.82957363 0.08020766 1.1670538 -0.50175667 0.44610602 0.3309033 0.5543985 -0.22855802 0.37283817 -0.7126969 -0.13522896 0.49455673 -0.029346334 -0.28035834 -0.27966836 -0.1589421 -0.4110719 -1.0800289 -1.0140394 0.31981045 1.5043418
873 0.93903035 -0.35929298 0.43136707 0.27215716 0.087319404 -0.09719147 -0.01011907 0.9820662 -1.1221626 0.021161024 0.40138134 0.9804479 -0.34739342 0.9564072 -0.044905752 0.69140506 0.42858616 0.78403693 -0.34687787 0.47850925 -1.1685236 -0.16664496 0.9653096 0.120413944 -0.211609 -0.23046984 -0.35706758 -0.29213637 -1.4059309 -0.76162136 0.39050066 0.9750521
44 -0.0914514 0.0708813 -0.46890935 0.33053288 -0.030346531 1.4923311 -0.16741301 -0.5224559 -0.87021357 0.23890011 1.2342049 1.1349075 -0.6296686 0.72657937 -0.59001046 -0.58293664 -0.88009626 1.0300552 -0.09415765 0.0762117 0.17384164 0.4408447 0.93648726 -0.26563242 -0.62871784 -0.92993176 -0.97926855 -0.17402427 -0.5600258 0.041762114 -0.038957603 -0.013156391
239 0.22892974 -0.00066904456 -0.1811747 0.070431985 -0.09816854 0.93794876 0.020121107 0.06533632 -0.88615143 0.078524604 0.52589905 0.82174754 -0.8686435 -0.9465704 -0.2862008 -1.2835464 0.46311125 0.87141347 -0.4899659 -0.25442424 -0.088123895 0.15075198 0.4768574 -0.07830959 1.1490597 -0.66599166 -1.0958581 0.4454877 -0.44128454 -0.9229078 0.51936716 0.5868571
48 1.175717 -0.1159207 0.3566746 0.6363602 0.036764733 -0.43906927 -0.0667034 -0.04960085 0.6126921 -0.16785905 -0.13208927 1.4664539 -0.83404875 -0.65975934 -0.5889988 0.24938601 0.110609666 0.522273 -0.6738159 0.16133961 -0.2172495 0.9267025 0.2512473 -0.66571814 -0.63008773 -0.5815716 -1.2199737 0.7075855 -0.42770812 -0.055064254 1.5996802 0.50353354
742 0.11821902 -0.71093714 0.79091436 0.13031866 -0.15966064 -0.45888343 -0.1727456 -0.115282334 -0.76093066 0.98395175 1.145405 1.6512549 -0.7401698 -0.18131144 0.14247295 0.16386817 0.12877576 -0.30300406 0.085496776 0.2614506 0.20126937 0.39131004 0.4914762 0.026399735 -0.15580434 0.46408674 -0.3507034 0.12540047 0.7925233 0.29844075 0.66238105 0.4124354
1067 -0.006399718 -0.8928938 0.26048592 0.15688148 -0.117759764 0.10652157 0.4320213 0.2804163 -0.19700535 0.7662055 0.14805466 0.4458784 0.3408141 0.029899722 -0.12823364 0.5381258 0.11048521 0.15929276 0.7013438 -0.036417335 0.3753297 0.6034926 0.025297567 -0.26911458 0.3189277 0.35340014 -1.185613 0.19806325 -0.12045875 -0.6298333 0.27815923 -0.037039027
607 0.0068007656 -0.10013969 -0.004039383 0.5780944 -0.41728422 1.1766722 0.2628901 -0.19311184 -0.53585535 0.056131024 0.712557 0.7235522 -0.3333014 0.046397757 -0.6543304 -0.8155699 -0.16994956 1.6152517 -0.1310031 0.158675 0.85635954 0.4991842 1.1454755 -0.23826724 -0.1767794 -1.3446357 -0.7837253 0.32840207 -0.18538874 -0.11609497 0.04335612 0.6212296
401 -0.02848929 -0.52225286 0.610133 0.43943492 0.04413263 0.25586513 -0.62972766 -0.28220466 -0.4796464 1.0039586 -0.07586638 1.6989185 0.13325316 -0.15030046 -0.094673835 -0.6501253 -0.15146132 0.36101827 0.003228075 -0.597977 -0.43902135 -1.4926323 0.014797958 -0.5706855 -0.8720392 -0.20103493 -1.05054 0.06530098 -1.7240283 -0.09860751 0.4005543 1.2215378
146 -0.09888145 -0.30113184 0.6513792 0.5932184 0.1482538 0.6320672 -0.39930058 -0.45576945 -0.4021386 0.8158876 0.032504696 2.1491303 0.35663342 -0.23676252 0.35788202 -0.419245 -0.33447614 0.03184 0.015316857 -1.1119758 -0.42887476 -1.1588216 0.13617112 -0.3810323 -0.8887335 -0.4149637 -1.1568732 -0.32680488 -1.7078481 -0.15215746 0.6061047 1.19737
223 0.6258635 -0.7545994 0.35060117 0.34338036 -0.37562838 0.23516777 -0.23376383 -0.20136794 -0.20387694 0.41200075 0.42297778 0.6511651 -0.25156873 0.6623827 -0.18951279 -0.017870361 0.1073249 0.5169117 -0.014594454 0.2618913 -0.28989118 -1.5213511 -0.22625406 -0.31210604 -0.012837356 -0.34177738 -0.47585717 -0.10918649 -1.0959668 -0.43393344 0.061528094 1.4154998
411 0.10757182 -0.3525636 0.7235964 -0.044695232 -0.68059653 -0.11705803 -0.42849788 0.37974587 -0.59614384 0.4998194 0.98626405 1.5439334 -0.7068973 -0.7769739 0.036266528 -0.36448792 0.5361724 -0.15411076 -0.21285313 -0.17192173 0.6008813 0.13438779 0.9176985 -0.17114507 -0.21221206 -0.058859553 -1.148777 -0.3662875 1.0055283 -0.31168184 0.04489261 1.1867847
1070 -0.044512797 -0.8533043 0.20788139 0.0741043 -0.13015805 0.16140755 0.41401243 0.29307956 -0.1830002 0.7342426 0.12833534 0.5311678 0.45161453 0.069934815 -0.12469058 0.58895206 0.04136295 0.13066928 0.60406417 -0.0040113125 0.33966726 0.58720964 -0.050752107 -0.3042859 0.31187665 0.33611372 -1.2062306 0.29880273 -0.19440818 -0.62712073 0.34661356 -0.059421595
306 -0.050317418 -0.6861544 0.68739814 1.2628928 0.08035378 0.7041752 -1.5553379 -1.3889943 -1.1845244 -0.048922006 -0.0085954545 0.9631265 0.04209441 -0.7164405 0.48171526 1.1461637 0.032454714 0.69761086 -0.41020015 0.43777823 -0.3703235 0.35547528 1.1994454 -0.24181171 0.079161264 -0.31238145 -1.2805426 -0.19371314 -0.5597444 -0.14176376 0.3618723 0.4745661
80 0.54295456 -0.16573668 -0.27299157 -0.28326446 -0.42707902 0.0340921 0.029824458 0.37031826 -0.45239684 0.47241068 0.2901591 0.41139296 -0.7403096 -0.9285479 -0.14062953 -0.56426597 0.13750829 0.8742389 0.37451425 -0.14743385 0.43233603 0.37064126 0.7206949 -0.43090475 0.5270897 -0.47187513 -0.71081877 0.11368342 0.43131095 -0.48083812 0.2424717 0.9131021
236 0.22850333 -0.28592736 0.14568344 0.16978836 -0.33633813 0.033944614 0.19963032 0.5476519 -0.14237262 0.9211064 0.51918036 0.22838753 -0.88643295 -0.7514408 -0.15347081 0.15048766 -0.26682475 1.0671508 -0.17504229 0.19125256 -0.12412289 0.6645009 -0.40367287 -0.05715095 0.15581052 0.04186322 -0.83414084 0.2118245 0.2264668 0.37171933 0.92181337 0.91523504
341 0.8374753 -0.07435475 0.50452363 0.4116929 0.29563642 0.25630617 -0.17565599 0.40859282 -0.94375974 0.19696914 0.45080832 0.9616962 -0.32763854 0.90501755 -0.49005866 0.7178422 0.42427438 0.80897737 -0.24937534 0.22684832 -1.180497 -0.07319395 1.0921835 0.28441718 -0.14062253 0.19638033 -0.05294533 -0.37150732 -1.2300903 -0.9887043 0.28023383 1.4299506
227 0.18837309 -0.78625995 0.777253 0.015042696 -0.3354097 -0.59528977 0.18918456 0.037645996 -0.8000518 0.8126906 1.0864193 2.0893047 -0.75688875 0.34187186 0.3664521 -0.19912265 -0.14921495 -0.30912656 0.098211184 0.18344003 0.09849597 0.12981588 0.8505328 -0.024482884 -0.47285703 0.21927737 -0.54869777 -0.12677872 0.78308195 0.31196108 0.6315641 0.69113755
122 0.3906929 -0.43563777 -0.6417461 0.18267506 -0.7488239 1.3043236 0.08936215 -0.21993469 -1.0460727 -0.40429428 0.8989151 1.4003506 -0.46515238 -0.6489447 -0.70088303 -0.8721094 -0.27681652 0.11139136 -0.27014616 -0.5806947 -0.6144996 0.19708787 0.97811985 -0.8715876 -0.053067565 -0.76517606 -0.35459304 0.31485653 -0.045299754 -0.8331626 0.27271965 0.3915311
110 0.3007556 -0.8608732 0.97664726 0.7589058 0.46005002 -0.29250064 -0.17403615 -0.79306144 0.48315662 -0.5140017 1.5838395 0.9587159 -0.42039505 -0.40173626 -0.76204634 0.36690897 0.006779446 0.8906237 0.87952775 0.44793737 -0.116775826 -1.0779763 0.77463466 0.19226387 0.41335785 -0.97810936 -0.9090121 -0.71169126 -0.88279194 -0.3368978 0.051612563 1.0144322
140 -0.043687675 -0.73543596 -0.2276603 0.54238254 -0.2093278 -0.11110899 0.086040355 0.23845962 0.1515291 0.62766427 0.472236 0.565625 0.38542202 0.17313367 -0.14117125 1.03213 0.13092078 0.8066313 0.3849612 -0.40365624 0.10574864 -0.27428406 -0.45364982 -0.42718965 0.65488404 -0.2534419 -0.5412652 0.5479471 0.09609586 -0.7312606 -0.11705089 0.6027491
1065 0.043986328 -0.9406684 0.18688662 0.09894591 -0.10844955 0.17766201 0.38944396 0.23658687 -0.28255153 0.7727013 0.13490973 0.41420242 0.34969553 0.026774753 0.024324737 0.47857058 0.06993991 0.062118243 0.6694201 -0.10568632 0.2806916 0.53729045 -0.05191306 -0.2479666 0.28424752 0.2142162 -1.2844071 0.3216093 -0.112158984 -0.49604055 0.3657823 -0.0937728
290 0.15316384 -1.1346489 0.098074764 0.8547704 -0.16949922 0.61511 -1.4549583 -1.4515212 -0.91080725 -0.1575463 -0.06822145 1.060512 -0.22359054 -0.36913976 0.17032261 0.9277223 -0.24903974 0.277411 -0.20050007 0.9536345 0.1118405 0.12815577 1.2526762 -0.33478373 0.40002093 -0.33640584 -0.8495864 -0.07876466 -1.0133022 0.02956128 0.24369162 0.6010684
736 0.4008316 -0.37648198 -0.35696733 0.078664295 -0.5185701 -0.30668387 -0.17377655 0.16168937 0.24191181 0.33658323 0.5115324 -0.023030816 -0.08541726 -0.03718901 -0.08008286 0.50958467 0.067338675 0.658625 0.31564176 -0.11420583 0.25693062 -0.51301956 -0.2770591 -0.3885444 0.44809365 -0.31340483 -0.5235337 0.4920394 -0.030198157 -0.6007531 0.1303365 1.0607635
70 0.6110357 -0.11580235 -0.46076244 0.07235232 -0.5468141 -0.19419225 0.12549686 -0.17868787 0.3933271 0.24946563 0.4272513 -0.021636195 -0.11298119 -0.42564923 -0.1348993 0.36461163 0.051848557 0.36468053 0.097521126 -0.25364757 0.13052644 0.052606866 -0.12858792 -0.22675887 0.21525966 -0.3616438 -0.895543 0.76447374 0.13741091 -0.40819073 0.51786524 1.4276185
1069 0.01944477 -0.90928024 0.13601373 0.14176811 -0.16175613 0.14305685 0.40188214 0.22672704 -0.26088837 0.79417574 0.119906954 0.4442534 0.356362 -0.008610404 0.06541024 0.5018818 0.07105395 0.13253407 0.73513585 -0.17569864 0.22747648 0.52534664 0.008117737 -0.18867137 0.23108841 0.23891847 -1.3007609 0.25269064 -0.05996321 -0.5723036 0.32365644 -0.13407873
130 0.28617337 0.22192754 -0.7139842 -0.068207964 -1.1488034 0.32140258 0.32332477 -0.02375842 -0.9567397 0.17834081 0.8034396 1.3649136 -0.8654496 -0.9713793 0.011081963 -0.31102306 0.375093 0.27638865 -0.35659105 -0.3765462 -0.14385715 -0.037876252 0.9486725 -0.34924886 0.0010968413 -0.26650655 -0.8761785 -0.3202842 0.23655708 -0.47326285 0.50867236 0.30455944
185 0.5694142 -0.68975997 -0.51910883 0.8562656 -0.22780405 -0.9222333 -0.2242391 -0.3779926 -0.21979256 0.3522263 0.10142347 0.63546324 -0.18650736 0.49435574 -0.70160866 0.22731699 -0.7176869 0.72533584 0.18144394 0.296933 -0.11859117 -1.0909833 0.48741728 -0.86460394 0.3980905 -0.17429659 -0.81274986 -0.98145354 -0.74463844 -0.8211354 0.17849967 1.3384774
1066 0.046500415 -0.84699017 0.15164885 0.15041459 -0.12737048 0.16892648 0.43161717 0.24435546 -0.2530429 0.7733861 0.101315595 0.42665508 0.3078412 0.0025926556 0.0026022738 0.51095027 0.060386974 0.11864971 0.73000276 -0.094183646 0.2920902 0.5638306 -0.0043698237 -0.2286501 0.31955317 0.27021775 -1.3746741 0.23927633 -0.10161854 -0.524431 0.40405324 -0.14547683
875 0.8373443 -0.12229369 0.5974424 0.13888574 0.22821505 -0.009955541 -0.08956548 0.6199284 -1.0521309 -0.08806145 0.6839814 1.0532776 -0.2765047 1.0871347 -0.38683134 0.55067164 0.29244792 0.5951612 -0.28113946 0.36400247 -1.2365891 -0.11097197 0.8073648 0.1489378 -0.035022 0.039772477 -0.2664301 -0.28689548 -1.2307806 -0.7365085 0.37813735 1.4886539
203 -0.3746637 -0.9325573 0.20049636 0.10550142 0.54814374 0.40505806 0.039522823 0.32497808 0.3217039 0.605272 0.66844064 0.8446491 0.22262423 0.391336 0.85695183 0.33547822 -0.26252866 0.6249437 0.6970111 -0.068298094 0.22009912 0.33000928 -0.0033196278 -1.2367905 0.539843 0.20995872 -0.801022 0.22360821 -0.18949153 -0.6126628 0.50723433 -0.015264105
1068 -0.0022373905 -0.91416496 0.20400104 0.11454344 -0.11602364 0.18642496 0.42823634 0.19600947 -0.25801387 0.7497394 0.084964596 0.42179585 0.35406566 -0.016700229 -0.029917594 0.5724673 0.09851642 0.1757782 0.7570097 -0.04290627 0.2717361 0.66698307 -0.024501853 -0.18294694 0.20860538 0.35509637 -1.3855087 0.3107941 -0.10644742 -0.4786802 0.3627067 -0.021801986
118 -0.035660066 -0.6089297 0.31280154 0.36228403 -0.087160945 -0.33720747 0.36751354 -0.20379497 -0.61652863 0.61101234 0.6083665 -0.027644174 0.27789828 -0.031769972 -0.43137482 0.19651288 0.34198654 -0.07239122 1.2333835 -0.21506266 0.53823245 0.7399719 -0.006199482 -0.8973483 -0.2696464 0.032234535 -0.40659156 0.795737 -0.42103177 -0.17699914 0.65935904 0.44056693
878 0.78923047 -0.14507072 0.55560976 0.19328515 0.08129313 0.03747339 -0.21315627 0.60892445 -1.1402081 0.06677204 0.4749531 0.95836073 -0.229646 1.0903071 -0.33057228 0.44072643 0.39201877 0.6516708 -0.26570085 0.43759993 -1.0737174 -0.1311582 0.9400189 0.15618059 0.09513563 0.16974497 -0.33331633 -0.43010035 -1.3341951 -0.72131604 0.32274312 1.4659961
876 0.6426133 -0.31083515 0.41804862 0.2362467 -0.010802578 0.16039585 -0.13767946 0.68390745 -1.0514022 0.016262894 0.6509322 0.975507 -0.09499061 1.0822667 -0.20322615 0.594104 0.4160719 0.45151058 -0.4169183 0.41820458 -1.0905721 -0.09392747 1.0402875 0.092403 0.08231523 0.0796618 -0.15310916 -0.4372655 -1.3062569 -0.7848421 0.42469817 1.51624
874 0.86942554 0.0494691 0.6275343 0.26506802 0.053026285 0.20446882 0.006323363 0.6950443 -1.16107 0.060887143 0.5148647 1.027557 -0.13873604 1.0539602 -0.35755792 0.7665954 0.33012742 0.58258593 -0.26873547 0.5131302 -0.81917274 -0.076416895 0.97495645 0.049211126 -0.050263226 0.043072265 -0.27033785 -0.48995927 -1.3447087 -0.6924844 0.2868784 1.4524041
872 0.8525057 -0.07708281 0.3911251 0.27274197 0.29112735 -0.0062400666 -0.15102036 0.6970159 -1.217761 0.07977467 0.57187873 0.9259589 -0.18429412 1.1219045 -0.36126533 0.5418968 0.4658016 0.54170334 -0.29945937 0.3734501 -0.9459491 -0.09642938 0.8735077 0.20628673 0.016886005 -0.049235757 -0.3357298 -0.2804776 -1.296186 -0.63770807 0.3462804 1.465524
187 -0.054002225 -0.46441558 0.35349154 0.16244046 -0.84189826 -0.22796552 -0.24281935 0.13098511 -1.0221032 0.4082645 0.9823744 1.5244316 -0.7045354 -0.53146267 0.20437188 -0.20879777 0.55566907 -0.31300086 -0.5335395 -0.20689812 0.12543708 -0.0057768766 1.4085822 0.038205888 -0.24777758 -0.1673903 -0.7677636 -0.32442123 0.904882 -0.46164504 0.6820647 0.9220594
42 -0.09431201 -0.19303364 -0.4053849 0.25386998 -0.30707747 0.99296653 0.09286932 -0.4011402 -0.6349683 0.009184324 0.96751267 1.1616199 -0.770193 0.32618138 -0.44249576 -0.54967815 -0.91453254 1.3000256 -0.14817314 0.16170849 0.54674584 0.5422453 1.2506368 -0.39601323 -0.4007792 -1.2441556 -0.48765412 0.17185248 -0.7229402 -0.41345957 -0.21004094 0.07391987
429 1.408765 -0.051551677 0.61806506 1.2617021 0.026619948 -0.17414294 0.13888416 -0.11901372 0.5083195 0.12987028 -0.16840744 1.676991 -0.54515195 -0.5328271 -0.29440767 0.0013013498 -0.097123854 0.3873941 -0.51931596 0.2273772 -0.40108025 0.7051033 0.6595306 -1.0495464 -0.5491363 -0.8887731 -0.91328686 0.8607916 -0.65293473 0.16245304 1.5549603 0.47183004
158 0.8003911 0.28345558 -0.85412353 -0.010358252 -0.16325282 0.21554357 -0.1833774 -0.16220006 0.31001115 0.32879174 -0.004269477 1.1442968 -0.7242894 -0.4372322 -0.09933119 0.18922767 0.32317522 0.28385386 -0.23525657 0.30918998 -0.3929771 0.7385504 0.027052628 -0.774981 -0.3242029 -0.0084887985 -1.3530115 0.56111115 0.21345812 -0.037435867 0.97346413 1.1382616
189 0.13448724 -0.123018056 -0.20171037 0.06602163 -0.8244035 0.11716447 0.2568658 -0.24710704 -0.87207615 0.42549276 0.98889434 1.6279442 -1.1124816 -0.74016106 0.17246607 -0.16321531 0.60156107 0.13717344 -0.79133046 -0.81524265 -0.10635306 -0.17209557 1.3241304 -0.20912577 -0.09876257 -0.3117407 -0.724462 -0.5023451 0.60318065 -0.5748847 0.6684679 0.4854252
877 0.7151975 -0.040053587 0.48719245 0.31648034 0.17884223 0.1700908 -0.06106285 0.7253396 -1.0187501 -0.020020233 0.65178555 0.9927776 -0.16942434 1.1035233 -0.4219007 0.5931521 0.37505144 0.6243551 -0.34402543 0.5353102 -0.94405067 -0.23124117 0.8947264 0.18160173 0.12262268 0.0832887 -0.3113213 -0.47452465 -1.4114387 -0.83168346 0.67113346 1.341543
692 -0.26268062 -0.3851837 0.030637296 0.171325 0.009147006 0.015440463 -0.008420994 -0.3395313 -0.2712888 1.1957545 0.80375725 0.723911 -0.07718663 0.09565911 -0.4608263 0.38857082 -0.040539097 -0.15803745 0.5364562 0.10162681 0.46648416 0.75396824 -0.19575031 -0.045354925 0.5635887 0.6752219 -0.49583945 0.07643611 -0.24963644 0.37443978 1.1974441 0.49132484
191 -0.1653128 -1.0622305 0.2787901 -0.26913673 -0.13863786 0.03245523 0.5667428 -0.054490358 0.21363086 0.5253561 0.6248948 0.8822321 0.18337208 0.055725973 -0.20038751 0.8564622 -0.3480361 0.44418952 0.32446545 -0.6943576 0.20258217 0.73179716 0.45462358 -0.63873976 0.339674 0.6955517 -0.6063553 0.39645478 -0.58179986 -0.49492818 -0.0033843587 -0.16707812
43 0.061651252 -0.3764694 -0.3450434 0.33840096 -0.37890488 1.0625818 0.48977813 -0.38061777 -0.9807605 -0.27324 0.96974033 1.3072466 -0.9285004 0.37365973 -0.89188725 -0.639627 -0.83285874 0.97083455 -0.13962942 0.31259313 0.28647134 0.5829393 0.9312768 -0.23932469 -0.5379798 -0.93103325 -0.7312718 -0.018716455 -0.8142771 -0.11148851 -0.32837898 0.06396048
109 1.4479878 -0.2916388 0.29308835 1.059679 0.120474376 -0.3304157 0.10162679 -0.09381567 0.5689895 0.10039269 -0.16894308 1.7218252 -0.44730306 -0.5749365 -0.30629468 0.09926718 -0.08785346 0.311539 -0.61032444 0.28860763 -0.32282528 0.964467 0.5700899 -1.10389 -0.78228444 -0.9310277 -0.8633422 0.69958913 -0.85587513 0.08750378 1.3984126 0.5268876
199 0.014685931 0.22677304 -0.25621763 -0.6621079 0.1584014 -0.28198376 0.36419073 -0.17634284 -0.1366604 0.62004495 0.5589534 0.27056718 0.059622515 -0.16510898 -0.07078763 0.5566101 0.52909046 0.21011798 0.8618736 -0.14948784 -0.03139154 0.2957515 -0.10225028 -0.72315085 -0.17586848 0.08074852 -0.8300631 0.483799 -0.4377616 -0.59658813 0.8905063 0.21345767
165 -0.34895778 -0.08521887 0.16885589 1.463759 -0.038040344 1.1003857 0.5612866 -0.023971016 -0.5195121 0.39706373 0.61117786 0.8168768 -0.5642785 0.31422916 -0.8696762 -0.7960622 -0.058548816 1.3075751 -0.574691 0.2971987 1.0070815 0.74463505 1.7321427 -0.35887805 -0.23616669 -0.67280924 -0.8061601 0.25761786 -0.5395532 -0.7123458 -0.26741996 0.886184
784 0.19235268 -0.56534517 0.047032826 -0.08513811 -0.22609904 -0.36856502 0.1026411 -0.4432044 -0.32734582 0.41836217 0.71248066 0.08704389 0.40555644 -0.10185493 -0.2938458 0.10125901 0.07690835 0.32124436 0.9243183 -0.29134393 0.5650993 0.50514466 -0.22764929 -0.36403275 0.027450336 0.44500366 -0.5414179 0.48337674 -0.22219205 -0.28972363 0.7817014 0.6210706
470 -1.2115686 -0.51137793 0.10247917 0.28069454 0.22203475 -0.53198844 0.13112561 -0.41152757 -0.5059788 0.43301767 0.8627882 0.03716434 0.12701303 0.10008467 -0.24263576 0.13130781 0.5038482 0.20562427 0.90086067 -0.30688697 -0.7279818 0.81271297 0.38683766 -0.5399979 -0.23546037 0.11416232 -0.9971024 0.5091694 -0.62564 -0.64232194 0.21023956 0.5831629
472 -1.2738196 -0.5109645 0.104094654 0.38795337 0.20727663 -0.4772468 0.11920775 -0.4045657 -0.4902963 0.5112639 0.8955495 -0.002221037 0.0073137004 0.1281589 -0.19253917 0.20957631 0.37131906 0.33115393 0.84266436 -0.47277212 -0.77997285 0.82888603 0.3296255 -0.5527472 -0.26017907 0.06459736 -0.8979647 0.50037503 -0.5132604 -0.6132382 0.29090565 0.6323835
216 1.5121734 -1.0290712 0.016005142 0.8982278 0.121010356 0.17910136 -0.24648234 0.26808542 -0.8260956 0.4244515 1.0030894 1.3613474 -1.0770092 -0.21672301 -0.94271773 0.68446356 0.41131583 -0.44852036 0.12566024 0.53843945 -0.15737621 -0.75262934 -0.70619774 -0.6870532 -0.22327508 -0.1674624 -1.0994871 -1.0199726 -1.3766644 -0.9944216 -0.4420421 0.7286501
744 0.79394186 -1.0675093 0.5305008 0.26264277 1.0402915 0.5718428 0.16524772 -0.06958136 -0.5775796 -0.04391842 0.6168592 1.3879998 0.28397942 0.30946276 -0.540283 -0.2969094 1.1566696 0.41003695 -0.13588187 0.04153568 -0.8981606 1.0105124 1.2027177 -1.1682012 0.42341095 -0.32797304 -0.7034355 -0.97361183 -0.8071445 0.7529842 0.041329283 1.1118761
287 0.7474111 -0.20023589 0.5168228 0.5792353 0.803093 0.6233385 0.02245808 0.72487235 -1.0222552 -0.49589455 0.710398 0.9782287 -0.042172868 0.7410836 -0.031243555 0.17283814 0.63030505 0.7374615 0.0006908249 0.14715607 -1.0716411 0.40510425 1.0698035 -0.74882436 0.013145671 0.24858426 -0.283844 -0.86997765 -1.0641018 0.115839206 0.6221919 1.3788737
775 -0.045436446 0.036450084 0.93675023 0.42525473 -0.025989594 0.44624737 0.99508446 -0.46591163 -0.9134989 0.459078 0.6014039 0.34293646 -0.11680345 -0.33483124 -0.1660649 0.5109692 -0.4485896 0.030712822 0.9480449 0.059100345 0.088107385 0.57614213 -0.2511444 -0.16783087 0.5175902 0.3898526 -0.9176793 0.17004447 -0.06602688 -0.7097666 0.7720825 0.23269905
483 -1.3000464 -0.4758537 0.22071886 0.14195827 0.090607025 -0.5437539 0.27204415 -0.4551074 -0.42908666 0.47149754 0.7441792 -0.03127976 0.21871173 0.08625785 -0.4180838 0.26142377 0.201123 0.23120438 0.85633314 -0.2649993 -0.7606011 0.7298951 0.47952455 -0.57555056 -0.34411657 0.030706882 -1.0205029 0.4678644 -0.7197218 -0.6719149 0.3434 0.6483173
527 0.9478073 0.051635545 -0.08021671 -0.27630273 -0.1061443 -0.7760141 -0.7545375 -0.32764307 -1.2707875 -0.019733101 1.5844735 0.53789604 0.75636375 -0.10140436 -0.035636578 0.035350624 -0.2393003 -0.038895465 -0.1974754 -0.59346694 0.081937954 0.59247565 -0.06385914 -0.93102604 0.5454394 -0.4863431 -1.2631521 0.6463481 -1.152924 0.35860217 0.37714985 0.6047394
785 0.25909814 -0.63051605 -0.050596356 -0.039526895 -0.27842247 -0.29523152 0.086488865 -0.37871966 -0.29809925 0.40591934 0.8248732 0.13295053 0.4340446 -0.23022938 -0.2349811 0.15474528 0.033743594 0.2682298 0.98395187 -0.330473 0.50601417 0.48957604 -0.27894548 -0.41921327 0.12250577 0.4180831 -0.4455973 0.5785025 -0.19461577 -0.2627551 0.882047 0.58156455
944 -0.07405194 -1.0318298 0.33596596 -0.2042558 -0.15841661 0.083067216 0.5310273 0.16947392 0.24073614 0.66918826 0.6372653 0.9114904 0.30214116 -0.019716907 -0.2250386 0.68228936 -0.23594303 0.37534243 0.37273526 -0.8904929 0.0027622303 0.65135664 0.34669775 -0.47948262 0.403814 0.6748681 -0.61036146 0.5083243 -0.673777 -0.57455707 -0.04358861 -0.019573012
369 1.0276761 0.17394187 0.2879449 -0.32329118 0.19143784 -0.8966362 -0.42338777 -0.9133663 -1.5602071 -0.0706716 1.4660065 0.80378896 0.79701966 -0.109672286 0.018537387 -0.071575105 -0.47441626 0.38173583 -0.4571381 -0.8182068 -0.120168425 0.52771276 0.2687473 -0.94719464 0.3186981 -0.71685237 -1.197982 0.45912418 -1.055625 0.30704546 0.45146278 0.6228276
773 0.16604246 -0.6772732 0.84901124 0.008261413 -0.31433386 -0.4511322 0.07285458 0.045403555 -1.1180425 0.90586865 1.0931991 2.0207326 -0.54436135 -0.21901219 0.33706927 0.0043950337 -0.031913504 -0.16073789 -0.063630246 0.29736748 0.49402246 0.28700277 0.8007962 0.14187267 -0.46679315 0.24428214 -0.26167735 -0.12189419 0.5771945 0.26443934 0.65877396 0.5914949
559 0.6888082 -1.1407803 0.021073718 0.574298 0.05144055 0.18280247 -0.08440121 -1.4744065 -0.55129504 -0.49704286 0.71512765 0.67912424 -0.97614455 0.6278807 0.14424922 0.5314449 -0.54768586 0.49753547 -0.109768696 0.5256005 0.39070824 -0.84151506 1.1949072 -0.5903732 -0.568335 -0.44110543 -0.95093894 0.12206699 -0.69078666 -0.45293975 -0.059209976 0.3060224
942 -0.07888715 -1.0840213 0.38172975 -0.22895135 -0.17437686 0.08674416 0.36284512 0.15928797 0.2942091 0.6011056 0.60657656 0.8913599 0.26076606 -0.00949202 -0.2451917 0.7173116 -0.26680893 0.38230333 0.5574421 -0.8294495 0.04928637 0.6796996 0.41922745 -0.4619756 0.29546618 0.65805143 -0.43597382 0.44844732 -0.59479827 -0.62771285 0.049129277 -0.0010066162
408 0.02857564 -0.61933 0.36769024 1.3659995 0.34285092 0.5007971 -1.574621 -1.3090137 -1.1912555 0.43592417 0.24466027 1.2945513 0.093945816 -1.0507672 0.4948675 1.0300292 0.0687055 0.9286399 -0.2771431 0.67934215 -0.65875983 0.56335 0.94906175 -0.2854821 0.15089749 -0.48214185 -1.0184097 -0.5381887 -0.56480855 -0.24074502 0.1728554 0.33825427
771 0.013335826 -0.9046122 0.7793155 0.08871598 -0.2017417 -0.63438624 -0.16439639 0.17280243 -0.931964 0.7884272 1.075085 2.0648696 -0.59579945 -0.052181046 0.3277728 -0.062095255 0.096425734 -0.18675894 -0.18287519 0.20020796 0.45071852 0.26115754 0.87600505 0.01597273 -0.4660928 0.21308175 -0.34488505 -0.16397099 0.56450075 0.29335302 0.8147007 0.39409792
941 -0.1381429 -1.0862417 0.38334578 -0.17151189 -0.16321103 0.08682628 0.40672076 0.09268295 0.29144672 0.58475786 0.6679703 0.89119595 0.30494684 0.012643522 -0.24627246 0.5939877 -0.2911052 0.37717533 0.45939335 -0.8494536 0.023977498 0.57958883 0.37645164 -0.5229922 0.29481673 0.67161745 -0.5697606 0.470354 -0.5861767 -0.64143735 -0.059681192 -0.09039255
943 -0.005513935 -1.137747 0.4728619 -0.23790835 -0.103188716 0.060310535 0.35278937 0.12910126 0.2749171 0.6089685 0.6471189 0.86673963 0.291324 -0.04722056 -0.2185516 0.73894256 -0.2545778 0.37218568 0.43987426 -0.85206723 -0.041363254 0.6792681 0.4081194 -0.4820242 0.32163548 0.5956815 -0.49136922 0.56739366 -0.602034 -0.5306095 0.011441518 -0.050167203
541 0.14686248 -0.4957798 -0.032441095 0.078532696 -0.9113101 0.3434509 0.5147159 0.70182645 -0.24196284 0.30492634 0.15839714 -0.3356629 -0.303614 -0.6660932 0.23226655 0.13487153 -0.19329126 0.46962672 0.35306826 -0.41744468 0.28571147 0.3452488 0.10674013 -0.44646493 0.49029258 -0.018261896 -1.3729221 -0.22919524 -0.14163664 -0.37854844 0.51225156 0.8645979
328 0.372209 -1.1126016 0.60917115 0.42389742 0.06538682 -0.1703963 -0.4818185 -0.69544494 -0.32706 -0.39472604 1.1576229 0.9092 -0.6767136 -0.29364613 -1.0037631 1.053979 -0.82309246 0.63880587 0.28889307 0.1873649 0.20922698 -1.4565105 0.4840818 -0.24623686 0.129326 -1.3128554 -0.431159 -0.23711978 -0.6386058 -0.27229756 0.66531044 0.5676243
602 0.46995866 0.34810796 -0.0802162 -1.198582 0.3204933 0.45244434 -0.12696049 -0.6531701 -0.6183871 0.4282478 -0.0046274043 1.2928739 0.149706 -0.24632506 -0.0782648 0.74206626 1.0259403 0.64949733 1.0559777 -0.087546386 -0.4765745 0.24702263 0.24851722 -0.7098137 -0.6413641 -0.7140558 -0.83430445 0.71948 -0.31050345 -0.3340793 1.3784906 0.49436563
774 0.1139689 -0.7824773 0.78841317 0.0014961053 -0.23716114 -0.43827942 -0.12246351 0.096362546 -1.0514972 0.73876506 0.9876484 2.0844681 -0.63187665 -0.053774066 0.24961382 0.06861432 -0.029561574 -0.27483398 0.044730335 0.2136342 0.49551818 0.21812978 0.77227664 0.10675619 -0.5891157 0.32976988 -0.396148 -0.21583067 0.61855185 0.26524872 0.68144095 0.54997003
200 -0.1608927 -0.47039866 -0.20937704 -0.38060367 0.5829967 -0.07531779 0.72301215 0.122351944 -0.38522983 0.7196853 0.8056223 0.29780486 -0.057815004 0.069823444 0.3699746 1.012609 0.3231031 0.27791342 0.6465876 -0.04701672 0.4074971 0.39604047 0.013799801 -0.47277692 -0.14428098 -0.08602994 -0.9800133 0.30322713 -0.27085954 -0.43382782 0.82934004 -0.16925292
245 0.61171746 0.10445677 -0.28291348 0.22440374 -0.37923434 0.1456754 0.36206177 -0.053491674 0.3708896 0.29901293 0.055812757 0.98200524 -0.7745506 -0.6722913 -0.08179055 0.27754378 0.5656173 0.33664903 -0.5032797 0.45426503 -0.26791072 0.71283317 -0.111853205 -0.72139925 -0.54739267 -0.1875629 -0.8985616 0.68789965 -0.0073061036 0.07926554 1.2425829 0.8805287
770 0.19872485 -0.91481787 0.8009203 0.07795863 -0.35603535 -0.37497452 0.06641847 0.17006795 -1.132638 0.8087431 1.0360794 1.9899151 -0.70168096 -0.11661903 0.3331584 -0.08053892 0.09626033 -0.4661462 -0.18852898 0.058818195 0.37581828 0.29514483 0.77866465 -0.15880102 -0.6156751 0.3038832 -0.40041155 -0.15375428 0.60398245 0.3322373 0.5847672 0.51729053
285 0.5491574 -0.19159818 0.28139052 0.3645547 1.322656 0.66585886 0.26954496 0.568091 -0.8048051 -0.31558764 0.6336297 1.1748878 0.093215905 0.42778024 -0.24343005 0.30062878 0.4232452 0.09178481 -0.0032716175 -0.13685709 -0.6152534 0.48735207 1.9190495 -0.5632375 0.35286152 -0.030237896 -0.59568805 -0.88997304 -1.137805 0.40011564 0.86706525 1.2945756
769 0.038891323 -0.79109377 0.70677143 -0.029496333 -0.15738933 -0.61132365 -0.1588985 0.097495735 -1.1152706 0.83984965 0.96979374 2.08152 -0.7331267 0.068842165 0.2651125 0.15150854 -0.015029241 -0.25208572 -0.13443434 0.053265486 0.4807345 0.31358293 0.82447106 -0.08212089 -0.46168423 0.29549742 -0.35194308 -0.1325911 0.699374 0.24464385 0.75031906 0.44044974
480 -1.1757985 -0.39498827 0.27069515 0.26812217 0.13803177 -0.5802861 0.1529798 -0.37348893 -0.52062505 0.5389973 0.93880296 -0.029796261 0.11672617 0.16704816 -0.2943255 0.32041657 0.28020665 0.11492512 0.7291483 -0.45193824 -0.75271726 0.8992818 0.32895803 -0.5617281 -0.14297496 -0.034224465 -0.99214643 0.49571356 -0.5189886 -0.7178776 0.31012678 0.6198331
481 -1.1964523 -0.37840304 0.26149863 0.23728736 0.08913527 -0.51511645 0.01700429 -0.43529537 -0.30850914 0.5493231 0.7779815 -0.007532053 -0.012477077 0.1519959 -0.27816403 0.4402041 0.25983283 0.100124866 0.8574496 -0.4565545 -0.7040074 0.85132307 0.3535755 -0.45313632 -0.27833804 -0.034708463 -1.0554788 0.48627782 -0.6044206 -0.60179615 0.45003763 0.63974094
482 -1.1434702 -0.38182503 0.16673777 0.2681195 0.09841581 -0.5396593 0.023785828 -0.40600938 -0.430923 0.49511683 0.875103 -0.032304533 0.09692549 0.083440214 -0.23781712 0.38753822 0.37887684 0.01627877 0.69610316 -0.35022983 -0.7577261 0.8588068 0.4497694 -0.5567866 -0.21247175 0.037287712 -1.0047243 0.63901556 -0.53970885 -0.605268 0.38264766 0.5392606
484 -1.2695231 -0.38293833 0.16920623 0.36373478 0.13532026 -0.5205161 0.015193604 -0.3475331 -0.46931523 0.51200354 0.8316864 -0.009924563 0.053771716 0.19963817 -0.29805818 0.3699433 0.40513742 0.18281217 0.8364249 -0.22596855 -0.665483 0.8727797 0.51104736 -0.5552582 -0.25665173 0.12590098 -1.0350682 0.62927455 -0.52782214 -0.6211916 0.38725185 0.50009453
574 -0.3875718 -0.18216084 1.1199181 0.17686926 0.51516974 0.10465742 -0.19817792 -0.6686844 -1.1076783 1.1176608 -0.054379016 1.9831556 0.14108774 -0.12485306 -0.6891427 -0.55689305 0.12766366 0.7641011 -0.7224035 0.44719976 -0.24559915 -0.9679649 0.32404053 -1.5925952 -0.80221415 -0.054206427 -0.84159464 0.71074355 -1.2054805 -0.33551577 -0.2317436 0.96802765
985 0.032207914 0.18957035 1.2288741 0.9079006 0.27221704 0.53763694 1.358392 -0.5901901 -1.0732144 0.5484947 0.59514683 0.45619732 0.009068812 -0.42969304 -0.108375475 0.6840951 -0.4820155 0.13719168 0.56363547 0.458202 0.25299639 0.5117861 -0.135634 -0.41761628 0.4869957 0.62894726 -0.8502745 0.22535564 -0.4778138 -0.4894415 0.7912099 0.53135544
364 0.35589376 0.53238714 -0.592906 -0.838313 0.060382426 0.21204834 0.05356302 -0.37280425 -0.0025813014 0.2864014 0.22826797 0.83157814 -0.26930967 -0.3551692 -0.13999383 0.75512046 0.72246456 0.3291739 0.7572455 -0.13778716 -0.1514608 0.4529767 0.15323041 -0.6682716 -0.47936395 -0.27461645 -0.80890113 0.6227791 -0.30166602 -0.59561974 1.1136602 0.20858912
121 -0.055243846 -0.38632134 -0.86300147 0.48479694 -0.64825004 1.2553269 -0.2201073 0.19696422 -1.1036569 -0.1795141 0.5722952 1.2248197 -0.87977916 -0.6150967 -0.51307195 -0.79395044 -0.21194865 0.2145415 0.051014025 -0.5910775 -0.7243818 0.12721814 1.0203923 -0.6144849 -0.05464227 -0.8530787 -0.64944535 0.21604161 -0.121652216 -0.5488098 0.3188103 0.17912439
794 0.16294703 -0.56271076 -0.028656347 -0.16374937 -0.25151688 -0.36982024 0.07127763 -0.33495992 -0.37029022 0.47579837 0.7269927 0.18445858 0.3867831 -0.15558115 -0.10880899 0.12051461 0.10284198 0.38741785 0.93791544 -0.21774621 0.5335373 0.42530373 -0.16400306 -0.26761165 0.15176743 0.60597163 -0.45817456 0.6019599 -0.24109074 -0.2967924 0.7730146 0.6833377
327 0.44107443 -0.88885933 0.37734255 0.57472616 0.17901477 -0.16609085 -0.21685946 -0.56455016 0.07451856 -0.35795057 1.05835 0.43262568 -0.23346522 -0.2349091 -1.0140548 0.5845715 -0.29173288 0.6610064 0.45016313 0.43296462 0.19024362 -1.4106276 0.5660142 -0.0203554 0.17612495 -0.8680455 -0.6160138 -0.06032514 -0.7950198 -0.19498736 0.14210717 1.0802906
477 -0.692209 -0.6633754 0.13032548 0.2955968 0.008953376 -0.5915403 0.21520944 -0.19927369 -0.43323126 0.4616225 0.52901953 0.51066417 -0.017978055 -0.0068636136 0.13811255 0.14341244 -0.25085792 -0.13617118 0.6827414 0.1850855 -0.19171204 1.1884229 -0.09636913 0.056109827 0.106526256 -0.10660111 -0.79306597 0.789969 -0.64607567 -0.79951656 0.616916 0.25781965
288 0.20789586 -1.342091 0.1735027 0.62720126 -0.37628517 0.4494025 -1.3014382 -1.5995866 -1.1885681 -0.61774755 -0.09521307 0.79712087 -0.30369127 -0.3432818 0.0029638303 0.92320126 -0.17361821 0.375736 -0.09369864 0.82059056 0.10318989 0.16442336 1.0115808 -0.64142823 0.16879801 -0.13767445 -0.70094043 -0.1659903 -0.9326846 -0.16475351 0.2571374 0.8202887
210 0.4287648 0.43833062 -0.5959218 -1.028211 0.45462415 0.34531876 -0.523984 -0.4225991 -0.2933328 0.35279882 0.7156912 1.7643651 -0.08893036 -0.502697 -0.6846874 1.0385747 1.2736849 0.7685313 1.0336463 0.7706041 -0.2599739 0.040932365 1.3364377 -0.5562532 -0.82832986 -0.13010864 -0.8453078 0.7165353 -0.8675478 -0.023464572 0.9448069 0.10620681
293 0.022798037 -1.589236 0.30994245 0.73555315 -0.23194362 0.63760304 -1.2044834 -1.3848274 -1.2675478 -0.42296693 -0.18762335 0.7965251 -0.33433655 -0.42133412 0.051303416 0.91535556 -0.13336633 0.3202259 -0.07952177 0.9324254 0.38624263 0.020133166 1.0398896 -0.5110366 0.012243604 -0.278018 -0.64737034 -0.24559958 -1.014624 -0.10086553 0.2866577 0.83910704
475 -0.7389233 -0.6719896 0.15048935 0.35827887 -0.056958 -0.57123387 0.2446499 -0.18104364 -0.3834431 0.59364253 0.58657455 0.5408448 -0.14469574 0.091408715 0.13271774 0.16680047 -0.31126246 -0.11031495 0.7733165 0.26550597 -0.26844278 1.1308211 -0.13953099 0.11984647 0.09155579 -0.021482449 -0.91663694 0.7614159 -0.7409935 -0.75511605 0.5198252 0.17964917
289 0.030355364 -1.4295968 0.26942796 0.66681033 -0.27374196 0.5054664 -1.2896209 -1.5673339 -1.3074777 -0.36089775 0.040611926 0.7551227 -0.2813695 -0.45190763 -0.16058536 0.8056161 -0.11494211 0.06775895 -0.021043705 0.92465633 0.2461056 0.19187044 1.010458 -0.46755987 -0.072825566 -0.40380758 -0.66034585 -0.23255104 -1.027985 -0.009868788 0.20773442 0.7619392
479 -0.68175834 -0.7355614 0.19998756 0.311315 -0.019400353 -0.6436718 0.22275575 -0.23243524 -0.4459358 0.5898043 0.54813576 0.46958438 -0.1505956 0.051829178 0.109838076 0.2149621 -0.22973228 -0.15907392 0.7251227 0.23457024 -0.2668931 1.1573063 -0.14468883 0.09693101 0.06632563 -0.12371275 -0.7925644 0.69661045 -0.7103645 -0.7711677 0.56326115 0.22593227
423 0.16551766 -0.6667278 0.34488568 -0.023922049 0.45679876 0.6744091 -0.5970458 -0.001463231 -1.1883695 -0.027058482 0.5455754 0.6477536 -0.6485606 -1.0116345 -0.5132505 -1.5381579 0.6286264 1.2768764 -0.884027 0.0053172186 -0.08841043 -0.2320659 0.87129676 -0.27666047 1.0204028 -0.36669222 -1.1164653 0.22006671 -1.0794023 -0.99545604 1.6477513 0.046970755
473 -0.7030455 -0.726643 0.12794578 0.4040353 0.04589492 -0.71716785 0.26151162 -0.16932096 -0.5064287 0.6217795 0.48999453 0.5377962 -0.17748764 -0.06851242 0.13306698 0.15736626 -0.25713745 -0.027396567 0.738102 0.16870116 -0.24897717 1.0890379 -0.17848441 0.09095171 0.08219342 -0.055304106 -0.87310827 0.78206646 -0.68954265 -0.73277444 0.54187477 0.1927704
1303 0.9744181 0.356226 0.1741994 -0.27759844 0.1799065 -0.84474766 -0.5571061 -0.79489523 -1.5477676 0.03845191 1.4880602 0.73007965 0.6297019 0.254341 0.23587707 -0.0403631 -0.5035824 0.3641126 -0.49675095 -0.6724916 0.082853414 0.554082 0.28164288 -1.2050188 0.44016108 -0.6032941 -1.3613645 0.4037568 -1.1315316 0.27938014 0.5244252 0.5778399
556 0.82169616 -1.2514671 -0.04463538 0.7459206 0.11174604 0.29066536 -0.1619339 -1.4361352 -0.45564872 -0.6639583 0.6859428 0.4765774 -0.93398446 0.53208345 0.08843499 0.3202882 -0.4193398 0.636619 -0.2800629 0.25716966 0.47091112 -0.7088256 1.2195532 -0.52111614 -0.3581314 -0.44786134 -0.8970096 0.14890738 -0.8617042 -0.660496 0.17136098 0.28359908
558 0.7708208 -1.2937621 0.13519262 0.7858963 0.0010264686 0.27888787 -0.21485753 -1.4741275 -0.40733212 -0.6257742 0.67512643 0.40311745 -0.8077498 0.7254404 -0.051270865 0.35080856 -0.43172777 0.45560223 -0.25201568 0.18298411 0.49163717 -0.69299734 1.2915537 -0.46696413 -0.25937873 -0.4988827 -1.0624553 0.11796894 -0.9002403 -0.6127797 0.111280054 0.28953245
38 1.0836955 0.53347546 -0.6842195 0.27079675 0.10091163 0.59792364 -0.35987496 -0.53710043 0.35440058 0.61973137 -0.19954166 1.3676249 -1.0362939 -0.19500004 -0.018200293 0.24760748 0.3407589 0.55463284 -0.109047845 -0.023237143 -0.7739523 0.9432061 0.35904208 -0.58377886 -0.52997476 0.41204152 -1.7937154 0.46142492 -0.029092373 0.06458312 0.53924465 1.3758487
447 0.20105642 -0.27683136 0.035175797 0.06927669 0.076613754 0.6570552 -0.1463314 0.10657823 -1.211545 -0.033910397 0.42319387 0.75685054 -0.35536367 -1.2788743 -0.5218479 -1.5454026 0.61023897 1.0954903 -0.5878906 0.1485644 -0.3117685 -0.06302882 0.7732557 -0.14725281 0.96060175 -0.5239666 -1.2978699 0.2245932 -0.86014575 -1.1079929 1.0939487 0.31378216
478 -0.6356596 -0.6254441 0.14431074 0.3765946 -0.01760402 -0.48484755 0.23196876 -0.18967557 -0.3518827 0.5874417 0.5982606 0.44351214 -0.118191235 0.084711835 0.23396122 0.20460255 -0.31306946 -0.16765608 0.7497522 0.22873275 -0.26916492 1.1710194 -0.06126261 0.1358909 0.14750154 -0.09897742 -0.82394934 0.69482726 -0.71506023 -0.7334199 0.68804055 0.1700409
1305 1.0020257 0.27669078 -0.045245584 -0.33735055 0.0693094 -0.9072493 -0.55903786 -0.8184602 -1.5371135 -0.14226238 1.4388704 0.83894724 0.86117345 0.25296828 0.09766628 -0.2676588 -0.26783416 0.38579756 -0.46263126 -0.7776883 0.1228231 0.64115053 0.2498518 -1.1054674 0.2158137 -0.49871293 -1.3408016 0.26257533 -1.1597133 0.11733968 0.47194687 0.7175752
703 -0.010208114 -0.35186812 0.69747365 0.56755656 0.099174775 0.5560404 -0.26215035 -0.3815753 -0.4689681 0.97117114 0.18275438 1.8060969 0.33401266 -0.40230116 0.5043869 -0.6797271 -0.3633025 -0.05500873 0.25090948 -0.69154847 -0.6568494 -1.27532 0.38158658 -0.5559163 -0.92747194 -0.53234553 -1.235282 -0.13549891 -1.8141558 -0.0009799653 0.47798252 1.2098949
123 -0.14074512 -0.34146088 -0.88617116 0.37746698 -0.4866955 1.0890868 -0.1651842 -0.1979853 -0.9281206 -0.42055008 0.86467636 1.3715014 -1.0185097 -0.3981882 -0.60664845 -0.8099662 -0.34181288 0.64645356 -0.2049401 -0.4525695 -0.39056924 0.03030961 0.82501036 -0.90888774 -0.18084288 -0.5458368 -0.38207397 -0.02974844 0.011211819 -0.5167796 0.16493319 0.18131053
291 0.32158518 -1.5663577 0.30575696 0.7723202 -0.37217143 0.6063304 -1.2347025 -1.5238967 -0.9614367 -0.5067453 -0.13829379 0.8100174 -0.40760314 -0.4804184 -0.005223904 0.96594894 -0.1586502 0.38297066 -0.10750896 0.726555 0.28598645 0.29633313 0.8125475 -0.5714275 0.08931564 -0.33288798 -0.56500185 -0.23816751 -1.100579 -0.1555034 0.36118948 0.70876867
570 0.70860976 -0.15835951 0.45297816 0.3792062 0.300053 -0.7696854 -0.8544244 -0.12164975 -1.683756 -0.5681261 1.3770734 1.1095455 0.58061635 0.0638592 0.14856263 -0.1923807 -0.84698725 0.17584157 -1.0574645 -0.82054096 0.5343157 0.7080952 0.2522749 -1.3290496 0.24302508 -0.40846303 -1.0308511 0.45647347 -1.1322572 -0.035491914 0.44288203 0.8776136
201 -0.2880542 0.012178356 -0.2097103 -0.40806004 0.58603895 -0.092570275 0.7002551 0.0787378 -0.34987053 0.64031875 0.86445606 0.029188067 -0.20435303 0.30363315 -0.20928992 0.5248731 0.17764431 0.028821228 0.8087187 -0.3950886 0.1025023 0.26542276 0.07524048 -0.52995664 -0.440485 0.10333644 -1.1794715 0.7764764 -0.63292354 -0.45285454 0.742963 0.12538709
441 1.371496 -0.38970774 0.61954033 0.7324568 0.1067107 0.18594818 -0.71740663 0.723986 -1.0494097 0.37120646 1.2166055 0.26112428 0.4434535 0.89720005 -0.8496852 0.04414212 0.084245674 0.27677503 -0.5029896 0.93485844 -1.0878836 -0.31824714 1.0742428 -0.28819612 -0.544952 0.14638507 -0.69794136 0.08827062 -0.72988313 -1.1727908 0.6195316 0.9394061
1304 1.0878836 0.28332853 0.3765872 -0.051755693 0.16723824 -0.78510445 -0.530588 -0.91646904 -1.6099347 -0.04358255 1.5455683 0.8821768 0.5801497 0.25390762 0.10986987 0.0549822 -0.12992413 0.4397015 -0.5572569 -0.98911446 0.018849092 0.62848955 0.03933569 -1.1063653 0.49864534 -0.6134845 -1.0677785 0.55724895 -0.9803215 0.22465447 0.33415803 0.6429395
557 0.7304016 -1.33626 0.12353881 0.76713485 0.12556744 0.20389053 -0.1512366 -1.4239751 -0.49745333 -0.593626 0.71681243 0.39437518 -0.93857396 0.6417037 0.115920566 0.34808868 -0.3259286 0.48102757 -0.23067051 0.1150525 0.62453127 -0.6069845 1.1652263 -0.47212735 -0.3510701 -0.6659234 -0.9282136 -0.1296363 -0.91422457 -0.53566295 0.21986945 0.29561073
220 0.43959352 0.38424298 0.015067462 -0.59353113 -0.3946246 -0.86781114 -0.20129183 -0.27801368 -0.78891873 0.07087773 1.2931327 0.3761658 0.5510717 -0.066288196 -0.30564326 0.51761097 -0.06749339 0.43068635 -0.010015863 -0.30527788 0.5785794 0.6479307 -0.5077596 -0.79885274 0.5541331 -0.22671571 -0.99917555 0.29473707 -0.5440729 -0.021830747 0.2133107 0.9567119
366 0.43503195 0.0019552454 -0.45352694 -0.12038082 -0.592326 0.24352437 0.19723369 0.30850428 -0.44335574 0.5722022 0.35678685 0.28905836 -0.5477707 -0.79013574 -0.18779428 -0.4074596 0.26082912 0.9992168 0.079097204 -0.15795471 0.4515929 0.11576635 0.47966576 -0.60562164 0.436056 -0.36246583 -0.72495997 0.14142136 0.4359299 -0.5604717 0.43943906 0.72447187
555 0.7088749 -1.2317435 0.1730076 0.65982825 0.035069074 0.25046608 -0.24412817 -1.4086801 -0.41734338 -0.6184946 0.64339244 0.40659872 -1.1106012 0.6616287 0.20654619 0.41671175 -0.31677595 0.49163228 -0.13770846 0.3408742 0.42686793 -0.66327953 1.2519602 -0.4900096 -0.23107873 -0.71093947 -1.1099246 0.07421164 -0.8263472 -0.5119074 0.196919 0.23422398
365 0.43731728 0.028851885 -0.48769188 -0.0665591 -0.5961732 0.17218731 0.15559164 0.27395815 -0.37341276 0.5051998 0.25101954 0.33024552 -0.48671788 -0.78121126 -0.06487558 -0.42201123 0.24446993 0.94033945 0.09163344 -0.13534616 0.4450454 0.19457677 0.4155248 -0.4800923 0.48286217 -0.4925553 -0.8394385 0.12398426 0.34911275 -0.54918647 0.49165967 0.7350976
213 0.5015043 0.29513836 -0.43602052 -1.1115835 0.50233835 0.3021377 -0.121671826 -0.5787971 -0.41073245 0.31275958 0.6305765 1.2010411 -0.02297682 -0.72360486 -0.35265607 0.81806016 1.2225074 0.6481894 0.81188625 0.38609108 -0.42760843 0.08163575 0.6692988 -0.6464513 -0.72990614 -0.12047584 -0.97651 0.74857074 -0.36800927 -0.37137073 1.027441 0.04359243
402 0.20601599 -0.4581752 1.2225953 0.26640615 0.028395604 0.22986218 -0.60368437 -0.48446468 -0.57464737 1.2528547 -0.09780179 1.4630364 0.33010682 0.08273426 -0.21734737 -0.41865265 0.07115241 0.5627988 -0.18301639 -0.22470576 -0.16071846 -1.5143719 -0.030757792 -0.8403673 -0.89814365 -0.5177716 -0.93033606 0.21373458 -1.4634627 -0.42336687 0.12917043 1.1607322
277 0.62926745 -0.8896946 0.6362242 0.14560091 0.939875 0.65418226 0.32012305 -0.24093218 -0.65322256 0.0457602 0.5535886 1.2386622 0.30390918 0.37145 -0.44780466 -0.17737043 1.2308419 0.48431996 -0.18982655 -0.25993937 -0.7188489 0.91565293 1.4615457 -0.8355695 0.2251627 -0.46112514 -0.48292553 -1.0633069 -1.0176492 0.72263694 0.5375483 1.1852667
746 0.46042868 -0.88386506 0.7446117 -0.012529922 0.80501604 0.70279276 0.41359106 -0.07931625 -0.6712498 0.005735223 0.38244787 1.2373625 0.1530417 0.40175477 -0.4956461 -0.15229565 1.038029 0.3632668 -0.10739982 0.02974722 -0.8519416 0.8314336 1.327164 -1.0715504 0.27507177 -0.46896103 -0.77822185 -1.2974448 -0.9600276 0.679113 0.43588358 1.0474061
314 -0.5311288 -0.92192143 0.001214949 0.29615006 -0.1065829 -0.38907525 0.63093203 0.22431973 -0.36966562 0.65265393 0.44717613 0.8840052 0.3900367 0.12641618 0.18942975 0.43246797 -0.2430636 0.3639584 0.099465065 0.23409562 -0.25046846 0.66793376 -0.40709758 -0.32854244 -0.088453084 0.3987375 -0.9769508 0.22333437 0.09063785 -0.094606094 0.7532735 0.06927423
747 0.70008564 -0.8243213 0.6434533 0.23612948 0.86731124 0.44863662 0.38509038 -0.18407561 -0.73340195 -0.017796418 0.4759607 1.2238368 0.26561037 0.47858286 -0.71221083 -0.058486048 1.2291651 0.40482777 -0.13914 -0.106035106 -0.75552446 0.86344594 1.4384617 -1.1073513 0.30082914 -0.50465864 -0.6051345 -1.2906905 -0.8278278 0.51890945 0.5557065 0.9288242
743 0.6251 -0.95616406 0.71510446 0.22721657 0.96060437 0.6840122 0.6351777 -0.14546189 -0.8657562 0.11848438 0.42296124 1.1591924 0.2556673 0.3458439 -0.6534047 -0.0923438 1.2065994 0.47615218 -0.17967942 -0.01353631 -0.94768494 0.5936477 1.4840212 -1.0518353 0.18603604 -0.40900487 -0.5608663 -0.9384885 -0.8260463 0.7328734 0.45369467 0.9987391
681 -0.1940107 0.23258813 1.3410978 0.7828063 0.19361846 0.39995772 1.1048352 -0.5389549 -1.0175556 0.32846266 0.2368387 0.7675608 -0.39635313 -0.072697 -0.24169753 0.5758613 -0.7135944 0.29458788 0.85366195 0.09230827 0.3687933 0.41682386 -0.14489844 -0.14449021 0.3029448 0.5836798 -0.9980801 0.28404728 -0.14186804 -0.5417611 0.9847795 0.41505232
745 0.48939884 -0.8764765 0.64612633 0.24863228 0.7680003 0.6462089 0.70739675 -0.22274624 -0.7672436 -0.066884965 0.3570716 1.3502196 0.41832596 0.30998442 -0.5041343 -0.115227975 1.1551409 0.32546696 -0.22763489 -0.011653975 -0.83278155 0.7882591 1.3714188 -1.0568308 0.20873623 -0.43251878 -0.5151646 -1.2345713 -0.95306426 0.43087107 0.48728424 1.1375241
181 -0.0615338 0.03656568 0.9380548 0.6202638 0.30649325 0.08163653 0.9920324 -0.5676893 -0.73919064 0.72070324 0.4509218 0.63255155 -0.20407002 -0.3092675 -0.16700128 0.47352818 -0.59622264 0.20541604 0.67318296 0.18030038 0.25100124 0.59630466 -0.23450617 -0.20516166 0.2796385 0.63254243 -0.7678676 0.24603622 0.048701435 -0.46699303 0.8785265 0.31576437
577 -0.4292726 -0.14106604 0.9721714 0.035330705 0.51625913 0.20974356 -0.43082556 -0.6611291 -1.1123896 1.4017054 0.054313775 2.0291452 0.040201947 -0.032259133 -0.76890945 -0.3615405 0.25489178 0.47338554 -1.0352418 0.5869444 -0.2891633 -0.54133797 0.3469882 -1.5166405 -0.612004 -0.26142728 -1.0219576 0.83557105 -1.2757173 -0.37164244 -0.4446693 0.6610296
1048 0.51787204 -1.1368997 0.6532822 0.21015422 -0.028370686 0.19867039 0.14054209 -0.065231144 -0.03661299 1.3571208 0.2826411 0.89939487 1.2954535 -0.03946017 -0.39465645 0.7244135 -1.121078 0.45249832 0.4664159 -0.37330258 -0.10436188 0.7645522 1.7394695 0.16356996 -0.12991434 -0.50434214 -0.96152705 -0.11121048 -0.8287771 -0.46432865 0.71450424 -0.27013195
578 -0.52588433 -0.12249951 0.9284204 0.07635326 0.55462474 0.13177729 -0.30087808 -0.77161336 -1.2144474 1.3525186 0.02221212 2.0346777 -0.13439226 0.0008793445 -0.658775 -0.38569477 0.26978958 0.63426554 -1.0401678 0.38179767 -0.25023448 -0.668402 0.35814705 -1.7520804 -0.63038164 -0.1753025 -0.85594505 0.8177985 -1.2875912 -0.32306582 -0.26593894 0.8132412
467 4.132684e-05 -0.08873079 -0.5802681 0.024387944 -0.1764515 0.9669262 -0.1827696 -0.040754482 -0.975099 -0.07146311 0.7940552 1.1890055 -0.70767003 -0.76804954 -0.66544616 -1.0734134 0.4602511 0.80001575 -0.44004604 -0.24281287 -0.51655513 0.23321263 0.71080154 0.04531183 1.0246572 -0.5025648 -0.9385081 0.27727744 0.06740453 -0.84648484 0.41179487 0.4673959
576 -0.5209429 -0.15491745 1.1215339 -0.023706261 0.58886415 0.22424594 -0.25732347 -0.8341259 -1.0871714 1.1047935 0.18278395 2.1907167 0.004582122 0.054045856 -0.53450006 -0.4441142 0.4072175 0.4438371 -0.91919285 0.5744785 -0.05245333 -0.7004902 0.44452938 -1.6956211 -0.48157918 -0.2261596 -0.89603907 1.0434929 -1.3605564 -0.34849143 -0.30627444 0.6839364
579 -0.7020871 0.003726171 1.2140034 -0.05395766 0.50666887 0.20012742 -0.38242358 -0.65198827 -1.076784 1.0769051 0.057378616 2.1586268 0.032758478 0.022580277 -0.70709693 -0.28329363 0.082625546 0.6329079 -0.94836277 0.6406439 -0.27450648 -0.7167486 0.32385543 -1.6456192 -0.45769468 -0.26593903 -1.0226926 0.84116054 -1.1952863 -0.3733961 -0.23471725 0.8146949
448 0.16360803 0.21167792 -0.14057152 0.3017063 -0.414893 0.9043791 0.18222141 0.13546725 -0.3403043 0.16819131 0.84413487 0.7234324 -0.5652064 -0.41575587 -0.3339399 -0.78201056 0.233621 1.7404007 -0.08599668 0.29446808 0.96546674 0.4371877 0.72027385 -0.24969965 -0.07875212 -0.8134077 -0.8465183 0.3254668 -0.13776107 -0.26398554 -0.14571248 0.5515579
575 -0.60650635 0.04913119 1.0561997 0.23670852 0.57118493 0.23924291 -0.37276682 -0.6212652 -1.2844216 1.3127239 0.33563483 2.0175135 -0.018972471 -0.18344449 -0.7340585 -0.3235595 0.38378033 0.63072914 -0.88044727 0.6116192 -0.109539576 -0.7327001 0.31658563 -1.7158248 -0.5624538 -0.2573479 -0.78424037 0.9610017 -1.2959431 -0.06594932 -0.26880446 0.76420593
390 -0.24358709 -1.1283424 -0.25791878 1.4685602 0.21417359 -0.5168445 0.12194306 0.39232215 -0.28402573 0.6081929 0.12342499 0.83182734 0.08895123 0.16723903 -0.27320835 0.921072 0.4116466 1.0277897 -0.044364177 -0.59637064 0.18638793 -0.49192238 0.06640751 -0.5259294 1.1208929 -0.1809835 -0.67981976 1.1307921 -0.28759545 -0.4932639 -0.015803922 0.47449657
63 0.5408055 -0.84325427 0.44428882 0.23817244 -0.037870966 0.39290324 0.18424079 0.08198837 -0.98624927 1.4168401 0.7744645 -0.04192295 -0.59560555 -1.4231942 -0.9672785 0.2687204 -0.6912059 1.3567746 -0.6353688 0.09292811 -0.9114945 0.425228 0.16093911 -0.21172702 -0.1867087 0.19046348 -0.86118555 0.18832174 -0.09583113 0.9332478 1.0128969 1.3835347
796 0.49140203 -1.1028252 -0.19802512 0.7400441 1.1811873 -0.0070189186 -0.9972154 -1.1276543 -1.0665201 -0.4953169 -0.106388904 1.2649313 -1.4492991 0.7925008 -0.541578 0.10266893 -0.08053348 0.38727906 0.769357 -0.109183036 0.36449447 -0.5141056 0.7529179 -0.016809281 -0.12338658 -0.5990242 -1.3537807 0.41919196 -0.5152036 0.07475635 0.42454517 0.6002577
112 -0.17524703 -0.53555804 0.2910653 0.23971958 0.064968795 -0.37764123 0.5057689 -0.20732166 -0.5654671 0.71450317 0.663733 0.032905664 -0.008982337 0.09330866 -0.6440338 0.2197924 0.057153407 -0.0529852 1.3878336 -0.35933802 0.25051394 0.8374135 0.043295186 -0.9387129 -0.2167524 -0.19832931 -0.5519821 0.35073677 -0.38851196 -0.070669755 0.51126975 0.24073185
414 0.54745895 -1.0442753 -0.15106975 0.7963303 0.7496234 0.08366993 -0.848322 -1.172264 -0.89812404 -0.5315821 -0.10670362 0.9532342 -1.0421389 0.9112482 -0.628976 0.2968165 -0.42153892 0.4841111 0.3592395 0.06660337 0.3461477 -0.5270388 0.6083419 0.2631015 0.06409638 -0.6468931 -1.3979692 0.31270972 -0.4691483 -0.015181559 0.16050088 0.67808855
116 -0.1027831 -0.5600054 0.3581713 0.31618363 0.08755084 -0.33649614 0.46514815 -0.19623034 -0.56563056 0.7168306 0.7355008 -0.03665816 -0.019548222 0.06721208 -0.55508476 0.24521758 0.15548688 -0.09065833 1.4137409 -0.21620694 0.30124053 0.7571899 0.08220379 -0.9096516 -0.18134722 -0.10458218 -0.49287975 0.41693327 -0.40860328 -0.13196895 0.4942266 0.18395552
493 1.0943567 -0.21317557 0.6912407 0.9003066 -0.13040322 0.25188327 -0.80034786 0.80573106 -1.2822722 0.16485581 0.9416298 0.5370161 0.7772644 0.8646591 -1.0484691 0.24930297 -0.05175858 0.053158533 -0.3058697 1.2162206 -1.0660032 -0.107511066 1.1338967 -0.5973115 -0.8048378 -0.21376763 -0.94374037 0.29832816 -0.51671344 -1.3477025 0.5955611 0.9128457
46 -0.0270648 -0.35212418 -0.6865672 0.43187314 -0.17619096 1.1235751 0.19229923 -0.36595312 -0.96245855 -0.12167887 1.0840273 1.0716028 -0.55981207 0.3976319 -0.6224985 -0.6671491 -0.82928675 1.3256278 -0.06401852 0.060408253 0.3058002 0.39089733 1.1052992 -0.14812844 -0.7752557 -0.9438119 -0.7481039 -0.13495721 -0.6023186 -0.20627762 0.036560338 0.022560874
235 0.29299155 -0.34543064 0.06951481 -0.025132347 -0.16888261 0.027949624 0.46197474 -0.2703315 0.4974853 0.7390678 0.25024432 0.8644945 -0.7168647 -0.60132146 -0.32426417 0.325542 -0.11407603 0.49608886 -0.32483798 0.3687786 -0.29252097 0.78449345 -0.6468423 -0.2841909 -0.24770653 -0.009523481 -0.8454746 0.4187883 0.2733031 0.30033407 1.0663617 0.9684931
115 -0.1157974 -0.5934338 0.19355147 0.34927508 -0.030715212 -0.27780038 0.56661624 -0.30801183 -0.59918785 0.70689774 0.5771388 0.00265071 -0.028684797 0.17123628 -0.6387096 0.27084103 0.114989966 -0.049317587 1.3041072 -0.26160467 0.25872967 0.9039347 0.01110347 -1.0878134 -0.30029878 -0.08397186 -0.46781832 0.48300123 -0.3185906 -0.16882123 0.58824354 0.19836445
491 1.0002257 -0.32323313 0.6537268 0.85361814 -0.23012157 0.32261673 -0.8326449 0.74428487 -1.377269 0.2735608 1.1496955 0.47255918 0.6138957 0.8354463 -0.9564483 0.12877856 -0.24407457 -0.1970618 -0.37538567 1.1611328 -1.2313153 0.08855471 1.0875493 -0.3509038 -0.83174396 -0.18493985 -0.97514915 0.16192518 -0.63453674 -1.0951195 0.70865935 1.0131521
980 0.28038073 -0.9729137 0.94909 0.6881445 0.7642369 -0.42507648 -0.22509605 -0.62879026 0.56444013 -0.37422618 1.7384799 1.3298388 -0.21732584 -0.6261087 -0.616821 0.18455371 -0.062583186 0.9547895 0.94568837 0.98028207 -0.105443366 -0.9903411 0.8392146 0.28937313 0.12980455 -0.90015227 -0.94033813 -0.6197935 -0.9053915 -0.3908906 0.2757159 1.0581872
272 1.4287084 -1.0986177 -0.16656263 0.91551214 0.2604914 0.2595475 -0.022695657 0.082335874 -0.87815726 0.30851325 1.0981232 1.536136 -0.6937481 -0.5453967 -1.2179614 0.61256397 0.41307363 -0.6832846 -0.09504843 0.5190493 0.1502555 -0.4588602 -0.6010696 -1.1918399 -0.14326987 -0.15901025 -0.88102406 -0.9609462 -1.6466818 -1.1193718 -0.49889234 0.7474292
976 1.5060803 -0.7840397 -0.12545897 1.1533923 0.21220464 0.28958866 0.08271649 0.052574217 -1.1411797 0.35548383 0.99195385 1.4735368 -0.720503 -0.484013 -1.4324077 0.49468383 0.723324 -0.70142186 0.16212508 0.4686208 0.102955565 -0.52073383 -0.5922121 -1.016839 -0.38560194 -0.31517634 -1.1550525 -1.0912948 -1.6499947 -0.8650115 -0.33211532 0.67832196
332 0.14050768 -1.1810168 0.68773234 0.18319397 -0.1549957 0.27965677 0.38481688 0.123642445 -0.0480809 1.1283405 0.00755283 0.495196 0.938689 0.066362835 -0.15452921 0.8813034 -0.93091524 0.6919766 0.38140324 -0.5710668 -0.06427454 0.69857806 1.0819865 0.13792051 -0.105832495 -0.22258958 -0.75711083 0.27744746 -0.7400045 -0.6971164 0.7445793 -0.1890394
974 1.6106167 -0.9108082 -0.19628154 0.8090372 0.3950221 0.4665712 0.03748646 0.012687918 -1.1067059 0.20256571 0.92645234 1.7206519 -0.75748944 -0.5619797 -1.3928357 0.5603334 0.4584896 -0.58082664 0.1422534 0.2884685 -0.02342399 -0.6948522 -0.84983444 -0.8375415 -0.1216839 -0.14638035 -1.060179 -0.92089415 -1.6086297 -1.0962021 -0.23316006 0.6640102
975 1.6178244 -0.8695903 -0.21388753 0.870742 0.059264235 0.41325873 0.13175774 0.017729104 -1.0178043 0.2774059 1.1005007 1.8204302 -0.74961495 -0.310808 -1.284258 0.5628296 0.48244795 -0.68234533 0.30806002 0.62771523 0.11294069 -0.47057122 -0.7019599 -1.0191274 -0.27303618 -0.124168515 -0.87598944 -1.2136407 -1.435319 -0.8969937 -0.35268548 0.773257
113 -0.07114961 -0.49901628 0.19938089 0.4294437 0.048136692 -0.3704685 0.49212763 -0.20639634 -0.5372621 0.72987646 0.7082724 -0.049923625 -0.003915596 0.1861495 -0.6229448 0.19403554 0.08261802 -0.12037793 1.3670498 -0.29766965 0.18672752 0.8129767 0.12545525 -0.94494426 -0.21257138 -0.042925894 -0.5125875 0.43311423 -0.46752557 -0.119523376 0.60169363 0.16202089
266 1.643515 -0.9080763 -0.037428584 1.0311977 0.0502976 0.06276225 0.08986253 0.18969502 -0.8726801 0.29632816 1.0435141 1.7335464 -0.7288052 -0.5356489 -1.3648125 0.40670574 0.60808676 -0.5563847 0.23530202 0.5628027 -0.005811273 -0.6317008 -0.5128352 -0.99261713 -0.21792628 -0.23420334 -0.98768264 -0.80115783 -1.5212175 -1.1564127 -0.38683957 0.32959592
164 1.1713786 -0.0136754215 0.65144515 0.9746024 -0.09899893 -0.24633297 0.103595026 -0.011547855 0.4897517 -0.18917356 -0.04668804 1.57492 -0.6450997 -0.6575583 -0.5265827 0.06471118 -0.16205393 0.34527615 -0.42662466 0.4260197 -0.391809 0.88434446 0.3393771 -1.1022762 -0.87686574 -0.81319433 -1.0633321 0.63572603 -0.6056869 0.13039991 1.5237654 0.61688274
691 -0.3999192 -0.2873917 0.06921542 0.5947568 -0.06272178 -0.019968357 -0.087307185 -0.14226194 -0.08720583 1.1485826 0.66603017 1.0591561 -0.24227908 0.081512354 -0.40916926 0.3022717 -0.100451395 -0.15788361 0.17070507 0.3881766 0.4344888 0.70692974 -0.28287733 -0.15021332 0.48821372 0.849167 -0.6317974 0.08154772 -0.2620401 0.55186 1.28467 0.5305854
979 0.10366647 -1.0376254 0.8832779 0.43063357 0.732923 -0.46646702 -0.25665638 -0.749341 0.5167741 -0.44384012 1.7989514 1.2874554 -0.29907885 -0.77486056 -0.57306755 0.12704572 0.13355552 0.8822272 1.0248132 0.93787056 -0.12190131 -0.9439662 0.9649399 0.10167176 0.11963667 -0.99386054 -0.75763166 -0.7064952 -1.0127331 -0.6007121 0.18741626 1.1428405
938 0.511079 -0.33064952 0.99498206 0.037971135 -0.63578653 -0.27896854 -0.16964418 0.95889026 -1.7806346 -0.2221274 0.19371936 1.2445501 -1.0602914 0.6970788 -0.38618645 1.1976746 0.27508834 0.9286726 -0.86462754 0.014013699 -0.64337313 0.25113624 0.7609719 -0.14139922 -0.4353675 -0.06238171 -0.21007523 0.34481615 -2.0835247 -0.6126065 0.6428396 0.35315102
78 0.36762306 -1.086688 0.46443102 0.616693 0.048260782 0.1112903 -0.49780983 -0.82223225 -0.13948838 -0.70982224 0.95359874 0.65870315 -0.7814303 0.123656146 -0.6166026 0.8522766 -0.48699185 0.6743038 0.52549833 0.40242058 0.17030193 -1.0433671 0.44417036 -0.46826997 0.10496978 -1.2408569 -0.6554355 -0.10658961 -0.54043317 -0.016626231 0.04068947 0.6817407
978 0.21076542 -0.9962964 0.83873045 0.5767699 0.7238095 -0.15460426 -0.27613676 -0.8690281 0.6893225 -0.38721174 1.7216281 1.3093058 -0.13736318 -0.5944776 -0.67656964 -0.04087633 -0.15072262 0.9060209 1.0072427 0.8103627 -0.31278086 -0.97579706 0.88145024 0.2885337 0.41315985 -0.73652714 -0.8866135 -0.6460086 -0.8420757 -0.5211516 0.23178917 1.0984043
977 0.19679455 -0.9408541 0.84976596 0.8196737 0.84651357 -0.48553395 -0.32604668 -0.44043705 0.68074 -0.48659825 1.8806388 1.211952 -0.34498546 -0.6296118 -0.74179804 -0.08753357 -0.014700805 0.9437754 0.9331172 0.77502966 -0.092634715 -0.9970963 1.0025678 0.07529621 0.12534723 -0.83330566 -0.81721437 -0.5051737 -0.92293566 -0.4779943 0.3017811 1.0279646
817 -0.039464194 -1.2152034 -0.2879795 0.6684227 0.027343191 0.36144394 -0.84525716 -0.8862303 -0.28595418 -0.93846536 0.9941085 0.7702946 -0.6111949 0.95931536 -0.11032349 0.70093817 -0.023473145 0.6259206 -0.20691124 0.5762079 0.4607828 -0.6394033 0.5358807 -0.47716632 -0.45121384 -0.69358355 -1.3030397 -0.31281495 -0.50495505 -0.11590725 0.24841169 0.54317015
820 -0.045356248 -1.2321647 -0.45680505 0.54309285 -0.17817158 0.28623635 -0.97903067 -1.0629829 -0.33448735 -0.7420438 0.8360818 0.827501 -0.43405715 0.99395967 -0.23573148 0.6725491 -0.029461801 0.6565273 -0.30803797 0.58525676 0.55757195 -0.75914085 0.6342161 -0.46274292 -0.3385773 -0.6061332 -1.301077 -0.14833139 -0.6327638 -0.21043494 0.19288291 0.5210555
124 -0.08129591 -0.325875 -0.65699106 0.2225784 -0.6382705 1.0270313 -0.051364657 -0.20666894 -1.1489489 -0.31723872 0.7869435 1.3157738 -0.8643403 -0.68778366 -0.94271845 -0.86424726 -0.2896722 0.0710277 -0.13013984 -0.54750603 -0.61155576 0.14471336 0.8614631 -0.7431241 0.04641472 -0.93339396 -0.63187975 0.15066677 0.11672699 -0.48095027 0.3883679 0.30382234
644 0.16538869 0.25733083 -0.44178945 0.14342034 -1.162655 0.24170394 0.3265661 -0.22855566 -1.1629752 0.3358424 1.0210495 1.3424675 -0.80672723 -0.8215539 0.032112207 -0.22414127 0.60934055 0.21233389 -0.60225683 -0.7201575 -0.081148654 -0.24240923 1.1915098 -0.35349676 -0.3628291 -0.2937391 -0.89911574 -0.4838194 0.3336762 -0.530796 0.74426454 0.27252156
702 -0.21759942 -0.23481536 0.6531542 0.7657447 -0.0009315603 0.50473 -0.33908144 -0.54947466 -0.40231016 1.0454099 0.20405479 1.6392457 0.40062252 -0.094343945 0.1858387 -0.67891204 -0.12433972 0.12716253 0.030854432 -0.7230084 -0.4876865 -1.2603123 0.40141612 -0.55400616 -1.0650865 -0.5837785 -1.0772351 -0.18069328 -1.76409 -0.04116928 0.73976403 1.2373837
286 0.8526817 -0.22155951 0.594195 0.24154489 1.2587796 0.8163312 0.2112389 0.54435116 -0.9507922 -0.23444286 0.65769213 1.1027576 0.16325942 0.41939402 -0.58571595 0.3938838 0.3919402 0.19692905 -0.048443068 -0.14276713 -0.68932587 0.5479727 1.647935 -0.79204243 0.3901153 -0.08497762 -0.41355988 -0.89474803 -0.8689774 0.29200557 0.7128165 1.1843253
853 -0.049378015 -0.2390775 0.5170857 0.42888352 -0.5278329 -0.08360002 -0.182987 0.30073822 -1.1307762 0.7164072 0.89383364 1.620986 -0.73976564 -0.49293408 0.17454463 0.0005677141 0.4219243 -0.19790696 -0.23570998 -0.10125223 0.61726475 -0.12470257 1.4393803 -0.33613062 -0.22868244 0.3855617 -0.6845733 -0.36714602 1.0484116 -0.14316733 0.450858 1.05445
819 -0.06438862 -1.1931038 -0.48298165 0.5602751 -0.06338039 0.25704634 -0.89373857 -1.0573019 -0.26385495 -0.8087108 0.881058 0.938576 -0.53338134 0.9076483 -0.17107841 0.7252486 -0.024571214 0.71103835 -0.26351225 0.5184635 0.52929014 -0.68666667 0.59306484 -0.30899906 -0.3621782 -0.628323 -1.1932832 -0.32809642 -0.6126008 -0.22410233 0.3374735 0.46818727
645 0.25282484 0.22885676 -0.4815307 0.069779776 -1.0671779 0.122710094 0.10902923 -0.14779204 -1.0053207 0.3884061 1.0355693 1.3986102 -0.76226443 -0.64564586 -0.12767707 -0.3205025 0.63605213 0.37799513 -0.6253706 -0.7112926 -0.19336042 -0.30012536 1.4148061 -0.41558027 -0.19653371 -0.23970917 -0.8929358 -0.5100848 0.49779305 -0.40321824 0.8916594 0.32233363
232 0.7767747 -0.75538385 0.099749334 0.37062502 -0.2585894 0.17857015 -0.26964998 -0.13332853 -0.17738494 0.20513006 0.4584053 0.43572798 -0.29017466 0.7454034 -0.29955515 0.45011026 -0.084976144 0.36168543 0.2077029 0.21342894 -0.35799348 -1.3555436 -0.16131 -0.27408022 -0.120785564 -0.32776108 -0.5757852 -0.06008885 -1.0228 -0.52363694 0.036103223 1.4452633
704 -0.16426584 -0.40325126 0.6452183 0.47600374 0.063921176 0.5921095 -0.4310844 -0.25688708 -0.44754428 0.97394884 0.29301095 1.6823716 0.5367053 -0.37315688 0.3073706 -0.50477225 -0.2926286 0.11460199 -0.009752503 -0.69568133 -0.66881114 -1.1932119 0.16789505 -0.637199 -1.0416036 -0.6002394 -1.1900918 -0.3479598 -1.6943289 0.08482959 0.4615679 1.3014587
818 0.019840842 -1.2000139 -0.38168275 0.72481674 -0.12113224 0.39104027 -0.8106435 -0.96134925 -0.22133735 -0.9798662 0.79532564 0.9676478 -0.56443304 0.76238364 -0.10076904 0.8033134 -0.052374892 0.6044147 -0.36344078 0.41939214 0.33024612 -0.83613646 0.5695213 -0.37168556 -0.42145127 -0.5313376 -1.3471658 -0.29420152 -0.5619776 -0.14398573 0.2658585 0.5049737
403 0.10905613 -0.24209975 0.88406044 0.23794745 -0.28222096 0.29488915 -0.77746373 -0.42147475 -0.4897459 1.060378 0.26488 1.667741 0.21554378 0.040180504 -0.17238165 -0.31974417 -0.045386776 0.2287644 0.10238007 -0.4099829 -0.2851667 -1.5489548 0.14312194 -0.9018733 -0.78616 -0.35425785 -0.69141567 0.09190161 -1.6548882 -0.3057847 0.052120384 1.3393146
766 0.9377738 -0.107678875 0.37928575 0.54292905 0.30309165 -0.9243956 -0.8008177 -0.15925924 -1.7915474 -0.27915362 1.3113583 1.1611109 0.4621812 -0.08618729 0.048879877 -0.29072738 -0.9061682 0.38318923 -0.7646273 -0.81296957 0.55136013 0.6790041 0.15257344 -1.4444776 0.41648334 -0.4387243 -0.91236097 0.14099808 -1.2720242 0.2326711 0.35454625 0.79446644
767 0.7628445 0.07218754 0.32406533 0.34641585 0.5110408 -0.96862614 -1.0138519 -0.055062898 -1.7275857 -0.568521 1.406453 1.2707973 0.42679715 -0.18024322 0.1985259 -0.09485173 -0.86119646 0.6315236 -0.64006376 -0.87079006 0.45206812 0.5456787 0.20141672 -1.115471 0.20297986 -0.42622238 -1.0866925 0.3319553 -1.2117591 0.29832372 0.4788581 0.84030396
231 0.7249422 -0.84168375 -0.058657374 0.39750323 -0.34310672 0.284544 -0.27237722 -0.07283447 -0.14898454 0.052913778 0.4630244 0.42750064 -0.29367626 0.5989945 -0.24545369 0.4251971 -0.041548632 0.33504987 0.34705055 0.26587647 -0.487494 -1.4523412 -0.0024165187 -0.4345022 -0.00719522 -0.102329336 -0.4615709 -0.08820005 -0.93354565 -0.49220014 0.1108844 1.4853116
367 0.104205586 -0.5648558 -0.3918875 1.1216236 -0.43613255 0.10460796 0.19016998 0.46464127 -0.31311178 0.62740624 1.4272999 0.9871397 0.9855228 0.083584376 0.34284717 1.4610516 0.37680215 0.5752746 0.2766206 -0.39620265 -0.10699354 -0.19197085 0.039911974 -0.59181887 0.8226088 -0.45505342 -0.2631222 0.5170674 -0.096496776 -0.6411218 -0.27628532 0.75311416
643 0.31294727 0.13622512 -0.4193533 0.020769523 -1.1139722 0.2861927 0.20243265 -0.31390283 -1.0528833 0.34053856 0.9295501 1.4680209 -1.022215 -0.65663403 -0.09519735 -0.13423733 0.63090026 0.32275072 -0.5642028 -0.8570156 -0.14086114 -0.026397584 1.2246392 -0.21245293 -0.12204179 -0.21358524 -0.8971899 -0.4568083 0.47905454 -0.45818698 0.6975222 0.1928805
1061 0.8210463 0.21320178 -0.5336153 -0.09368924 -0.22070014 0.16762322 0.12918945 -0.2501708 0.50369006 0.30471614 0.05877499 1.116131 -0.83374894 -0.78039455 -0.21411507 0.39240924 0.32578442 0.34252796 -0.13241242 0.11415626 -0.26703838 0.7715144 0.026695514 -0.43529943 -0.3611658 -0.3515016 -0.89611864 0.5270935 0.10802781 -0.22326294 1.0675756 1.1412925
701 -0.42627263 -0.8489776 0.08897902 0.23431434 0.080795795 -0.41334328 0.49274942 0.2738104 -0.25544629 0.84831023 0.47092217 0.7893155 0.15152134 0.1420746 0.32056728 0.5286656 -0.2491255 0.3771283 0.13302346 0.28188258 -0.13774712 0.799486 -0.26569423 -0.20087866 0.052051805 0.39517713 -0.9395207 0.29211357 0.11486826 -0.18755192 0.71214396 0.12402275
765 0.8976377 -0.12866303 0.12368499 0.2437525 0.4841775 -0.9170933 -0.96832216 -0.14876397 -1.6651903 -0.3974403 1.2751437 1.3234104 0.442459 -0.13373198 0.21050099 -0.093509175 -0.88713866 0.34906116 -0.8363603 -0.8272642 0.41168958 0.67991453 0.08690647 -1.3081052 0.35862774 -0.4578444 -0.96503913 0.2843663 -1.2065217 -0.046797898 0.37160885 0.7347253
455 1.0642362 -0.1290449 0.8388181 0.6548896 0.6514448 0.66821533 -0.15031245 0.73409444 -1.0445555 -0.22780845 0.68276936 0.9234435 -0.16930375 0.98633164 0.11747033 0.11576981 0.6629084 0.5886135 0.35226467 0.21365869 -0.7173747 0.20420364 1.1093299 -0.5491169 0.24285562 -0.10630521 0.12637685 -0.5015163 -1.2136872 -0.1832263 0.8247917 1.3889966
404 0.09568173 -0.3405001 1.0736015 0.37306643 0.049637835 0.37066683 -0.77097625 -0.40255883 -0.20401728 1.2458239 0.24453785 1.5359396 0.026504038 0.19634314 -0.07759779 -0.5788454 -0.1614221 0.44691953 -0.060834598 -0.34894267 -0.29686454 -1.3162771 -0.09138162 -0.7072179 -0.9541427 -0.4222104 -0.8623389 0.144947 -1.61275 -0.56918144 0.05997606 1.362099
693 -0.30897695 -0.34244648 0.1363039 0.46566656 0.0650276 -0.17564437 0.031019088 -0.07338913 -0.108682565 1.2201881 0.6348545 1.0429485 -0.119718574 -0.0406293 -0.5075433 0.35213557 -0.102123566 -0.116956785 0.20727058 0.30321127 0.5040575 0.8107706 -0.27722508 -0.16571388 0.58295333 0.80206203 -0.7035366 0.05639189 -0.13827834 0.5021416 1.277156 0.6887182
453 0.7581009 -0.18148637 0.8957222 0.7803847 0.52637553 0.5814361 -0.13729222 0.8860773 -0.9509806 -0.46235904 0.4719319 1.0411286 -0.20735654 0.8864997 0.018976673 0.1615547 0.539026 0.3705739 0.46921635 0.31038913 -0.98484373 0.25689557 1.2095288 -0.50968444 0.27322024 -0.10667174 -0.076232806 -0.4876041 -1.2253174 -0.08831781 0.81570715 1.468734
526 0.55807537 0.2653401 0.2991965 -1.3766733 0.1454796 0.7336978 -0.23548763 -0.70929027 -0.9247321 0.031267166 0.26059535 1.3696376 0.031692352 0.011068707 -0.039629918 0.54935044 1.099449 0.45902845 1.1353517 0.21771179 -0.5842449 0.24354865 0.1169579 -0.72844595 -0.763334 -0.8408469 -1.0160632 0.8574429 -0.24907055 -0.4743699 1.6169927 0.5369631
815 0.55981904 -1.4306908 0.060336772 0.15332888 -0.29411492 0.45049363 0.2952581 -0.29742363 -0.5573585 1.3460318 0.12530349 0.39181328 0.26795086 0.25350493 0.04138317 0.4296649 -0.19241303 0.26846132 0.06142241 -0.66786784 -0.41758806 1.1724087 0.09722064 -0.38520586 0.25135407 0.41600212 -0.76255065 0.1261712 -0.78410524 -1.0373696 0.15951197 -0.37350774
457 1.0670645 -0.2678588 0.88318115 0.5880823 0.4826104 0.7212704 -0.18015036 0.80383795 -1.01744 -0.4692602 0.7101804 1.0310926 -0.10384044 0.9227994 0.1317288 0.07462419 0.59518164 0.3906765 0.36747196 0.13609849 -0.86091715 0.29280427 1.118084 -0.49327123 0.30151987 -0.04407452 -0.05126515 -0.46250248 -1.3240559 -0.19144304 0.61242425 1.3933396
928 0.6881984 0.10316037 0.24164732 -1.2965981 0.27495775 0.6736581 -0.17452125 -0.68232244 -1.028117 -0.014670219 0.1846159 1.3972293 0.03527958 -0.07093951 -0.04698353 0.68481463 1.2429408 0.55960405 1.081751 -0.018763233 -0.66880333 0.28203183 0.061913382 -0.572851 -0.8415359 -0.80284643 -1.0825953 0.805262 -0.22121827 -0.48089045 1.6290274 0.3859391
456 1.0142963 -0.30598432 0.718849 0.6889296 0.48905984 0.6376389 -0.13252106 0.74921614 -0.9119424 -0.37639266 0.54240274 1.1307579 -0.28274748 0.90133536 0.11402913 0.023516087 0.6681136 0.3812169 0.38674855 0.12174209 -0.9406761 0.22804508 1.1863923 -0.58229697 0.22478934 0.14857125 0.09591708 -0.48754436 -1.2951318 -0.204187 0.7075262 1.3250612
417 0.5116621 -0.41613883 0.82147557 0.0037267476 0.08570415 0.09074249 -0.9013706 0.5790343 -0.6740108 0.8107904 1.1897142 1.2849793 -0.56587994 -0.70308244 0.0678479 -0.1118593 0.24347302 -0.5222346 -0.5872191 -0.39660725 0.78940266 -0.10161168 1.0681416 -0.019803856 -0.23613796 -0.25776634 -1.4720497 -0.10683995 0.9470675 -0.41498318 0.40504503 1.1964254
616 0.5400547 0.13626881 0.31638396 -1.1416703 0.24172924 0.7343069 -0.22019805 -0.8176862 -0.9062398 -0.06418328 0.13366477 1.4942695 0.07668875 -0.14076038 0.14750692 0.67744684 1.2577296 0.48254362 1.1391429 -0.08518495 -0.51274484 0.484977 0.17989257 -0.77802145 -0.9263905 -0.8549635 -0.8420421 0.8177111 -0.2854865 -0.55449766 1.4899422 0.59171087
694 -0.4473991 -0.32100174 -0.01456013 0.5837322 -0.0076290644 -0.099106066 0.06946219 -0.09193005 -0.16673139 1.1362158 0.6455451 1.0320456 -0.19755319 0.1492982 -0.49512348 0.30125865 -0.17014587 -0.070317686 0.23719153 0.31235415 0.5290443 0.7734167 -0.29611805 -0.24701339 0.378291 0.923436 -0.64160144 -0.00012700858 -0.17626745 0.48399073 1.2744753 0.5993862
446 0.22787663 -0.0062470753 -0.005040528 0.35342324 0.1345844 0.67577964 -0.13601342 0.08807267 -1.2439407 -0.030308736 0.59268445 0.73262614 -0.4808591 -1.036767 -0.44366276 -1.5062977 0.7154287 0.7768287 -0.33241716 0.19278467 -0.1013488 0.17010611 0.5154608 -0.3980204 1.168645 -0.90108883 -1.233169 -0.024872532 -0.4828533 -1.5726045 0.9133782 0.40396774
695 -0.39236587 -0.32477048 0.2509721 0.4181548 0.07120153 -0.08827499 0.026516913 -0.09710989 -0.16956419 1.1843877 0.56237006 1.0455487 -0.12594086 0.06659455 -0.45901772 0.4109891 -0.07717882 -0.111898854 0.08505967 0.3119795 0.42107895 0.7411166 -0.35528982 -0.18680474 0.50174 0.7969005 -0.629496 0.13547106 -0.18789104 0.47909987 1.3471429 0.5844215
554 0.36177546 -0.90024585 0.82952857 0.015676621 0.3288539 -0.19520663 -0.4293663 -0.8416098 -0.44455108 -0.3842628 1.48356 0.9768386 -0.7101147 -0.27100956 -1.3581394 1.211599 -0.86294496 0.80598426 -0.034381676 0.36412346 0.2230943 -1.4118015 0.5493475 -0.71912104 -0.023891065 -1.2638462 -0.2638343 -0.2857101 -0.6720934 -0.30698007 0.8680231 0.618581
490 1.1794322 -0.27490658 0.736935 0.62373596 -0.22931744 0.3708713 -0.9116839 0.81152266 -0.98697406 0.1736694 1.1472031 0.6034329 0.7998343 0.95630705 -1.1600122 0.04658186 -0.23193641 0.19039245 -0.26849627 1.1878234 -1.1678467 -0.10848371 1.0866294 -0.41170692 -0.59375805 -0.060562275 -0.89869475 0.29619193 -0.6198374 -1.142229 0.7424964 0.9348688
929 0.4012109 0.10882302 0.31186002 -1.227073 0.18388975 0.82547 -0.30585432 -0.8306678 -0.7903433 -0.055941395 0.11292123 1.2875288 0.14754209 0.1210329 0.099338 0.6403167 1.2424757 0.71078074 1.1338409 0.014178782 -0.6655859 0.3172685 0.21416058 -0.6872364 -1.013493 -0.78441954 -1.2183486 0.6238026 -0.277627 -0.3972881 1.7066171 0.43465465
553 0.5034064 -1.0755607 0.7255168 0.15203206 0.3740481 -0.13281295 -0.6020321 -0.6585937 -0.47237247 -0.3698939 1.494094 0.84996307 -0.5811566 -0.16784567 -1.3837684 1.0730863 -0.8388317 0.81285036 0.16785313 0.24484676 0.12026185 -1.4717951 0.61245674 -0.82301706 0.11584673 -1.2442523 -0.19889733 -0.23803854 -0.58487946 -0.13634124 1.0188326 0.58829266
409 -0.16841586 -0.7309045 0.1972705 1.5969297 0.3923609 0.7429133 -1.5022475 -1.363198 -1.1282842 0.15677224 0.26483363 1.0429994 0.008532267 -0.9923001 0.5353034 1.065075 0.137701 0.6598616 -0.17688116 0.38486043 -0.48350385 0.30315506 1.1086477 -0.34816763 0.2356809 -0.33157566 -1.1983334 -0.5479666 -0.43716633 -0.107250534 0.50881 0.46534714
608 0.2105831 0.20242503 0.069122344 0.2841542 -0.4405573 0.9994489 0.07976771 0.10380874 -0.4548157 0.025072806 0.9521165 0.6393195 -0.64104825 -0.092152834 -0.56284606 -0.64935154 0.107838415 1.8266128 -0.14013265 0.39473844 0.8979994 0.7065273 0.9991717 -0.20499824 0.010084678 -1.0314151 -0.9103493 0.2707746 -0.13080412 -0.32317847 -0.13690676 0.5605991
552 0.47791705 -1.1313212 0.60578173 0.121953316 0.19539012 -0.24511436 -0.52003074 -0.72620696 -0.35651767 -0.46940938 1.3790481 1.001505 -0.6195155 -0.1732016 -1.5160316 1.205533 -1.0432014 0.71488947 0.14162855 0.20353451 0.038651507 -1.4100761 0.6172454 -0.5649025 0.101593815 -1.1522232 -0.3201131 -0.1348844 -0.63527924 -0.24353665 0.8383977 0.6064196
919 0.3431585 -0.26485908 -0.45585448 -0.017619316 -0.53409165 -0.36921728 0.01338653 0.056335058 0.13581952 0.27091914 0.63367784 -0.15116557 -0.18398385 -0.4078076 -0.11881971 0.16222401 0.1253711 0.5371216 0.3572676 -0.23121488 0.22749646 -0.08052446 -0.29911068 -0.3208899 0.28335512 -0.21585311 -0.7207988 0.46655706 -0.0051728343 -0.54969347 0.38456947 1.1819994
606 0.034915462 0.17349707 -0.09788016 0.39866763 -0.34836403 0.92304736 -0.096929014 0.14952305 -0.39584425 0.022798559 0.9624217 0.729337 -0.54481757 -0.298095 -0.6013196 -0.66539055 0.17093644 1.8943281 -0.1568946 0.35155317 1.0311643 0.70338434 1.0834761 -0.29197314 -0.014366757 -1.0459545 -1.0608501 0.36508235 -0.25412554 -0.13754725 -0.33726823 0.5802831
782 -0.54612494 -1.5024061 -0.58667505 0.24097806 -0.04410479 0.083019495 0.49015677 0.5664485 -1.0807248 0.11481834 0.62776625 1.4303794 1.013061 0.05497695 -0.5857618 0.51816034 -0.37439847 0.47184622 0.45091912 0.6704023 -0.68635565 0.26532888 -0.59368086 -0.84960103 -0.15534219 0.47726735 -1.2576077 0.21554 -0.33020666 0.35584673 0.74493414 -0.21474352
324 0.09229057 -0.20559184 -0.35258585 0.5076737 -0.47437632 0.84949476 0.049866583 -0.32757452 -0.8073514 -0.47629496 0.81274676 1.2476838 -0.56433755 0.5094081 -0.64489764 -0.5398198 -0.6089202 1.5136646 0.0030207569 -0.17031164 -0.015158969 0.29119802 1.2792355 -0.5036439 -0.5178862 -1.1405127 -1.0509038 0.025089333 -0.34594336 -0.50830257 -0.4963173 -0.24811953
492 1.1156807 -0.17628 0.51388854 0.7807689 -0.17816027 0.45752594 -0.7909249 0.7135346 -1.1462089 0.20235103 1.3331654 0.50534314 0.8095475 0.8613917 -0.91314065 0.15433867 -0.25125387 0.021974897 -0.40487486 1.1374084 -1.055958 -0.064040214 1.2324078 -0.45802304 -0.93809 0.080092825 -0.78832036 0.43492478 -0.6457753 -1.1919256 0.6578165 1.1093128
41 1.3708873 -0.22403765 0.6666525 1.4548382 0.27833474 -0.41193292 0.057668436 -0.4496077 0.248551 -0.123563774 -0.19354197 1.8275611 -0.39728242 -0.5363338 -0.32515988 -0.124199644 -0.22779904 0.6442913 -0.39056233 0.23825718 -0.82798475 0.96221435 0.44819564 -1.1338762 -0.7166174 -1.0155011 -0.6942129 0.9819526 -0.36208102 -0.17379557 1.3889844 0.52828324
407 -0.21563223 -0.57798123 0.25500536 1.2520815 0.46977043 0.8206974 -1.6259364 -1.3512954 -1.1754228 0.320712 0.4231234 0.93767107 -0.053658694 -0.9698744 0.68427926 1.2309753 0.06544172 0.83526456 -0.41790232 0.5743105 -0.42600003 0.45924214 1.070849 -0.5911906 0.13925616 -0.5227902 -0.8334784 -0.2463694 -0.64663535 -0.21850564 0.5946326 0.42249474
125 -0.06433079 -0.69279265 -1.2326132 0.75925225 -0.6906063 1.1276046 -0.8183041 0.44281012 -1.1332672 0.14387313 0.66290724 1.2838843 -0.8021056 -0.5381673 -0.9278983 -0.5876877 -0.17140886 0.08595683 0.013273666 -0.74303836 -0.9960263 0.5820955 1.0323955 -1.0817981 0.4669942 -1.0904498 -0.5990817 -0.018161843 -0.4003911 -0.31467205 0.17642523 0.17686333
797 0.74851644 -1.4749677 -0.13332872 0.5748329 1.5904174 -0.22111687 -1.1355878 -1.2249509 -1.1665844 -0.33020732 0.12768197 1.3871958 -1.6491234 0.9024868 -0.790696 -0.07475535 0.33162844 0.6808964 0.5775374 -0.1358252 0.22071779 -0.27686718 0.4909173 -0.119708024 -0.10832423 -0.45908272 -1.2073177 0.43494987 -0.42749774 -0.054938335 0.46206832 0.34840694
966 -0.173045 -0.11805194 -0.27980033 0.44947046 -0.5801417 1.1129018 0.19307879 -0.29850054 -0.99336666 -0.5345383 1.2664706 1.1417085 -0.89691824 -0.014248913 -0.7571422 -0.5602309 -0.77944714 0.9747147 0.1311797 -0.02145661 0.3283171 0.29794708 1.2066753 -0.10025865 -0.7920934 -0.65792173 -0.5917843 0.0290962 -1.0006783 -0.014567368 -0.18484 0.18660524
283 0.8947051 -0.5414036 0.22068189 0.08871956 1.252442 1.0304486 0.3798685 0.45494586 -0.8708866 -0.401243 0.7497391 1.1689575 0.28673598 0.39347085 -0.1914349 0.39774352 0.5147684 0.032562725 -0.23886965 -0.17270502 -0.58833736 0.56277716 1.6525413 -0.71539015 0.2614839 -0.0120343575 -0.67266583 -0.9956459 -0.89678603 0.35466883 0.83401453 1.2549064
186 0.55563134 -0.6181235 -0.5882274 1.102052 0.003366402 -1.0472941 -0.12786932 -0.5005889 -0.09814568 0.5204098 0.19146271 0.63585514 -0.22174405 0.64186704 -0.64366174 0.3961161 -0.8092182 0.920309 0.072617225 0.15827294 -0.20303014 -0.81815666 0.583683 -1.2431726 0.19603133 -0.49480787 -0.97797924 -1.1866785 -0.7707826 -0.88781595 -0.078455016 1.396531
284 0.80399317 -0.45582843 0.3163047 0.22717614 1.3217596 0.8806421 0.1669926 0.37830657 -0.9001532 -0.24297574 0.45488054 1.0754595 0.08682193 0.39219588 -0.54552853 0.33851588 0.3651405 0.091952935 -0.12758596 -0.33996966 -0.5762964 0.59840894 1.6678113 -0.9623519 0.2011731 0.2725744 -0.56811136 -1.1313654 -0.9354742 0.2917928 0.79960674 1.3229687
466 -0.03799473 -0.04990363 -0.547528 0.11580126 -0.4730142 0.9526341 -0.1415839 -0.03877897 -1.0352038 -0.2765351 0.7356403 1.088864 -0.68689656 -0.7103119 -0.29966533 -1.289299 0.42293003 0.657086 -0.371598 -0.16746208 -0.50952625 0.23842466 0.51929 -0.15492268 0.8416107 -0.44731858 -0.93532497 0.29385784 -0.11860941 -0.91560614 0.5913732 0.61746585
965 -0.29714593 -0.35462093 -0.3870255 0.46026936 -0.6294514 0.86986065 0.09186758 -0.3410065 -1.2196603 -0.25017747 1.2548466 1.029631 -0.8980878 0.25802436 -0.9908003 -0.58781683 -0.82308567 1.0675713 0.003732059 0.12792316 0.35233885 0.306848 1.1081666 -0.14671667 -0.80911636 -0.7130864 -0.5227106 -0.11834328 -0.8033219 -0.2155111 -0.16175972 0.057369422
74 0.28910303 -1.1250871 0.41370237 1.025359 0.48458686 1.0337279 -1.6525364 -1.0544115 -1.3879887 -0.1590812 -0.06855705 0.86026937 0.023466576 -0.93419904 0.26806197 1.1260263 -0.18461573 0.53796023 -0.061141983 0.67380124 0.0657824 0.17948829 1.1153665 -0.4892924 -0.026016979 -0.10771079 -1.0825552 0.27408832 -0.59810954 0.17309555 0.30431053 0.45963034
961 -0.0720957 -0.23993702 0.5685565 0.14910766 -0.52281785 -0.25115475 -0.28017297 0.36737865 -0.8750264 0.6686436 0.98943806 1.7231658 -0.9552155 -0.4993719 -0.020655537 -0.087884344 0.33007964 -0.29521325 -0.14642364 -0.28409156 0.6158938 -0.18575427 1.2755569 -0.133793 -0.17047873 0.09846808 -0.62298286 -0.26054436 0.83311975 -0.11749453 0.49927917 1.0324621
1081 -0.21183483 -0.01061881 -0.7732921 -0.2587783 -0.7564224 1.0659928 -0.09217164 0.27478686 -1.0516862 -0.402613 0.21557091 1.6132674 -0.69974995 -0.58983886 -0.8284925 -0.6163523 -0.51390636 0.3919809 -0.34088254 -0.659695 -0.3596942 0.1234807 0.70690715 -0.3916541 0.55092275 -0.29911667 -0.9536653 -0.23430473 -0.09561672 -0.8893829 0.9195368 0.46736374
822 0.3175741 -0.8789649 -0.33427346 0.759103 -0.51588815 1.0508472 -0.41199213 -0.83234257 -0.77919567 -0.5771183 0.7438784 0.9316155 -0.6673369 0.6281076 -0.56630456 -0.319547 -0.631869 0.9258256 0.052313153 0.26095292 0.52683175 -0.44679722 0.58109725 -0.25002015 -0.2565996 -0.9187633 -0.44922778 0.10725688 -0.48857674 -0.34735376 -0.29782423 0.40029725
958 0.17381777 -0.039584626 -0.49646956 0.5100792 -0.29728055 1.6908545 -0.03006556 -0.40064764 -0.92973 -0.048315104 1.1559596 1.5377704 -0.5981288 0.70434296 -0.7521474 -0.14796744 -0.56707865 1.1390282 -0.35800105 0.049754795 0.42120776 0.33235103 0.90164554 -0.23008846 -0.5803977 -0.8638795 -0.63183445 0.07422487 -0.5401899 -0.25076666 0.08904517 -0.37572807
39 1.4039234 0.487708 -0.6789647 0.11558227 0.1814822 0.63014716 -0.3081191 -0.7085642 0.13184427 0.63507277 -0.12103072 1.4615914 -1.0481299 -0.24935879 -0.007966167 0.14691946 0.19097875 0.52675605 -0.38587883 -0.0462285 -0.9887961 0.9105098 0.44740918 -0.72429645 -0.89671546 0.6423832 -2.1543174 0.49715385 -0.24396792 0.06080761 0.3747928 1.4319451
37 1.4383137 0.70374787 -0.7269393 0.16488075 0.153779 0.6525673 -0.43862438 -0.7101448 0.0145725515 0.54148644 -0.105903536 1.5339786 -1.0162832 -0.15852761 0.034789324 0.3862547 0.031936366 0.7066972 -0.3919877 -0.1837764 -0.8224246 0.9295003 0.5680996 -0.6416025 -0.6829689 0.6842553 -2.0169055 0.536928 -0.049091104 -0.03503838 0.40254495 1.5137829
138 -0.265605 -0.9237448 -0.11748342 0.21301563 -0.14488277 0.07547688 0.10517881 0.2165027 0.10281305 0.8451907 0.5557611 0.67102885 0.29982206 0.5643255 -0.08518002 0.95950705 0.074165 0.7157678 0.62466747 -0.2869401 0.03777239 6.221037e-05 -0.28858495 -0.31093433 0.5683232 0.09457188 -0.62717927 0.6228262 0.029537478 -0.53180826 -0.15084131 0.3386529
1082 -0.30209514 0.043453444 -0.8335307 -0.1940335 -0.8404298 1.0004692 -0.08089207 0.18717757 -1.2245662 -0.44284058 0.13222338 1.6838607 -0.7610156 -0.6883219 -0.8968918 -0.6233885 -0.45608196 0.48940316 -0.17353515 -0.5089149 -0.29651353 0.026648456 0.73663217 -0.3792461 0.5071664 -0.26813933 -0.92508537 -0.23673189 -0.11563276 -0.7736003 0.9298648 0.56348515
842 0.48496395 -0.009924812 0.06080598 0.023630451 -1.011386 0.11409722 -0.24248569 0.8178907 -0.598748 0.16907407 -0.05283969 0.90789276 -0.7818175 -0.8237192 -0.47857094 -0.21386072 0.36989552 0.4814729 0.15787843 -0.027167885 0.42966592 0.20951486 0.52530986 -0.534393 0.089800514 -0.36574617 -0.8639111 0.5688514 0.67686516 -0.7757156 0.30252463 0.7556734
1080 -0.28685096 0.046007987 -0.6481326 -0.21338417 -0.7355652 1.0053737 0.048548054 0.120089166 -1.0428072 -0.48549864 0.14965464 1.7502851 -0.8464089 -0.5047125 -0.8744149 -0.6664518 -0.3466134 0.31250337 -0.30303022 -0.65400577 -0.34832057 -0.020690063 0.71498966 -0.56240207 0.5574925 -0.2500746 -0.94988996 -0.17600895 -0.006724015 -0.7995947 0.7795764 0.5515285
36 1.3267856 0.5526543 -0.7979191 0.1573169 -0.042788062 0.55979633 -0.37198988 -0.6956194 0.10454604 0.64516795 -0.19263929 1.4939566 -1.1081727 -0.03409217 0.06527696 0.44570467 0.028148502 0.4722323 -0.38633403 -0.058545876 -0.9653506 0.96275854 0.68113446 -0.6836622 -0.9050417 0.51901895 -1.9927183 0.4642222 -0.18345086 0.012031503 0.3744448 1.527899
1089 0.047242157 0.18566608 1.1326873 0.76994514 0.08627024 0.3066121 1.1125234 -0.6944619 -0.9565425 0.49328816 0.5823601 0.632993 -0.17369105 -0.2896992 -0.1920525 0.65411603 -0.6329815 0.14153974 0.9381979 0.28132966 0.19032268 0.4469149 -0.17777778 -0.26890025 0.50415623 0.64774644 -0.80349046 0.21025349 -0.105499 -0.73942065 0.930818 0.30337107
940 0.6454611 -0.33821836 1.0467943 0.3096587 -0.3005807 -0.3316524 -0.11062536 1.1151404 -1.3446058 -0.22601444 0.46955696 0.85772496 -0.9459951 0.8885595 -0.2341067 0.71360886 0.3364662 0.81007206 -0.7960486 0.14296065 -0.61863035 0.17822465 0.808584 0.11939489 -0.4681276 -0.022064505 -0.49198547 -0.23678145 -2.011117 -0.8803853 0.5523802 0.6623771
959 0.31691545 5.993291e-05 -0.56569624 0.79188013 -0.47224584 1.5226823 -0.122196406 -0.5105211 -0.5337671 -0.16437273 1.2947905 1.449753 -0.63383955 0.7266577 -0.53317076 -0.49519333 -0.5323622 0.9991173 -0.099467486 0.012470892 0.43353423 0.63342404 0.90184 -0.30997106 -0.3957846 -0.7378594 -0.61767125 -0.20967884 -0.6051644 -0.22328141 0.10148655 -0.21642278
841 0.49209672 0.027111262 0.04808808 -0.20338964 -0.98390293 0.24451384 -0.23582172 0.9030932 -0.67560285 0.22974467 -0.010480575 0.9449395 -0.60808766 -0.78522485 -0.54837906 -0.2707628 0.43294272 0.52562404 0.15962623 -0.11884027 0.4763161 0.24166583 0.54342514 -0.58933747 2.5296104e-05 -0.24917984 -0.92449784 0.4290051 0.70412505 -0.6987703 0.29825646 0.83488476
136 -0.33559772 -0.8112436 -0.08190166 0.31913948 0.015609472 0.12900884 0.30908284 0.20794675 0.069319315 0.8060499 0.57370996 0.6976167 0.33371928 0.45865333 -0.2610027 0.91110283 0.16424596 0.8990374 0.64790565 -0.26495022 -0.035671268 0.025108663 -0.386506 -0.3654346 0.530112 0.051671438 -0.5867076 0.61171657 0.023786973 -0.52394336 -0.08708547 0.27729985
1102 -0.29502037 -1.0168647 0.23907644 0.35352445 0.7319993 0.7325131 0.028372375 0.39107665 0.46630314 0.5574314 0.66568285 1.0678446 0.29246974 0.6674818 1.0065821 0.07914056 -0.41968486 0.73632157 0.79722387 -0.080848254 0.1588672 0.36302236 0.010399143 -1.5275052 0.47347096 0.12059403 -1.014324 0.38563845 -0.2807536 -0.6019092 0.67230296 -0.13613605
1099 -0.35546565 -1.0088814 0.23563144 0.36947986 0.771908 0.59264743 -0.07221048 0.41674474 0.4243617 0.471477 0.8923657 1.1082765 0.30406037 0.56637156 1.0393201 0.084043086 -0.35291445 0.7502258 0.89700437 -0.061870977 0.21376683 0.48639303 -0.056978676 -1.5078548 0.5252721 0.20043902 -1.0765699 0.28709754 -0.30852035 -0.47191286 0.38616547 0.012626411
778 0.24180493 -0.4810541 0.12888078 0.11552252 -0.31036824 0.01933778 0.054059356 0.5657435 -0.426124 1.0540361 0.7104654 0.05386007 -0.95551646 -0.932427 -0.7074919 0.6520906 -0.28894675 1.194236 -0.30778977 0.44287705 -0.49552104 0.9107232 -0.21206932 -0.098217115 0.45944273 -0.13074492 -0.7568498 -0.012825884 0.2883674 0.37320173 1.0479139 1.0040028
497 -0.5635077 -1.1964641 -0.31216052 0.2965252 -0.23599613 -0.065243684 0.54380435 0.32659718 -0.7609472 0.34364477 0.6335239 1.1098391 0.8792481 0.11222274 -0.2045237 0.46942443 -0.30744275 0.47875017 0.3465513 0.27300742 -0.4722441 0.3421501 -0.67934006 -0.63809377 -0.14051208 0.45191315 -1.0894457 0.1412462 -0.010114379 0.116040796 0.642559 -0.11782849
212 0.28641823 0.47518522 -0.3545757 -1.1615989 0.34835336 0.4590132 -0.2611089 -0.68873537 -0.37332994 0.16468574 0.51325065 1.4392129 -0.25793374 -0.7751875 -0.7110671 0.9959465 1.2550737 0.7250634 1.0004101 0.62060076 -0.32170457 0.124108605 1.1154609 -0.6084771 -0.77903473 -0.097418986 -1.0430669 0.58412695 -0.96729106 -0.050008286 0.89212316 0.23942493
129 0.44857752 -0.13854396 -0.50022024 -0.3304063 -0.7341245 0.47980547 0.0691238 0.332819 -0.32475418 0.6494867 0.1333845 0.59739935 -0.5590095 -0.67187744 -0.52459776 -0.53600794 0.63140357 0.81205076 -0.19335882 -0.15163131 0.67283404 0.19288117 0.59921765 -0.2042083 0.024856532 -0.7359388 -0.83103323 0.23126087 0.122606635 -0.7247895 0.56592673 0.61537576
779 0.31796134 -0.61840945 0.28727853 0.18253644 -0.22960582 0.18128093 0.25793046 0.40862218 -0.4685761 1.2611954 0.6186553 0.022257715 -0.8310551 -1.1581914 -0.72976846 0.35599783 -0.2807406 1.2638485 -0.3643275 0.42977625 -0.5911032 0.6562585 -0.12715948 -0.14213903 0.20809707 0.017670656 -0.7670476 0.22651137 0.1075235 0.5757899 0.95120716 1.0698992
202 -0.315212 -1.0279504 0.081507646 0.048265208 0.2650971 0.27401274 0.313172 0.40461874 0.12153521 0.60624665 0.5574172 0.75737655 0.21493317 0.29794288 0.59510064 0.71128577 -0.23052436 0.45967668 0.73131573 -0.055287372 0.066825174 0.4843878 -0.0042030755 -0.8282001 0.33870763 0.30489704 -0.7111204 0.30858964 -0.06134958 -0.42377388 0.47265315 0.09368699
211 0.2475275 0.35296324 -0.3730117 -1.1256583 0.3359247 0.48901612 -0.30841038 -0.46501368 -0.30927953 0.27713895 0.49367762 1.3950311 -0.22250214 -0.84021735 -0.5167204 0.9697807 1.2514027 0.6623859 0.9874073 0.5618394 -0.24443446 -0.08094908 1.2299286 -0.49240184 -0.81463027 0.1386838 -0.825388 0.65361744 -0.9833496 -0.21401298 1.0511297 0.24472064
311 0.27634394 -1.343145 -0.25402853 0.87375224 -0.3768445 0.3511852 -0.9345529 -1.1631721 -0.5549214 -0.47188896 0.24526723 0.5044313 -0.90379137 -0.15233043 -0.2872626 0.76349133 -0.08398064 0.87867606 -0.12690364 0.5114642 0.28658977 -0.32326946 0.8322898 -0.47626013 -0.16344023 -0.3215807 -0.832329 -0.21114372 -1.093584 0.28818655 -0.06525659 0.37211266
156 -0.24800517 -0.8712736 -0.13704075 -0.028579185 0.19516912 0.20735548 0.37623835 -0.3576007 -0.58974016 0.7239484 0.7227516 0.37336442 0.66939116 0.38505387 -0.020972067 0.38124043 0.024340948 0.34223434 0.8274885 -0.11484688 0.31530893 0.5414528 -0.3594822 -0.0038724765 0.42690712 0.32022485 -0.8442919 0.7093409 -0.23398477 0.05717988 0.4151771 0.616416
